/*
 * Copyright (c) 2025 EdgeImpulse Inc.
 *
 * Generated by Edge Impulse and licensed under the applicable Edge Impulse
 * Terms of Service. Community and Professional Terms of Service
 * (https://edgeimpulse.com/legal/terms-of-service) or Enterprise Terms of
 * Service (https://edgeimpulse.com/legal/enterprise-terms-of-service),
 * according to your product plan subscription (the “License”).
 *
 * This software, documentation and other associated files (collectively referred
 * to as the “Software”) is a single SDK variation generated by the Edge Impulse
 * platform and requires an active paid Edge Impulse subscription to use this
 * Software for any purpose.
 *
 * You may NOT use this Software unless you have an active Edge Impulse subscription
 * that meets the eligibility requirements for the applicable License, subject to
 * your full and continued compliance with the terms and conditions of the License,
 * including without limitation any usage restrictions under the applicable License.
 *
 * If you do not have an active Edge Impulse product plan subscription, or if use
 * of this Software exceeds the usage limitations of your Edge Impulse product plan
 * subscription, you are not permitted to use this Software and must immediately
 * delete and erase all copies of this Software within your control or possession.
 * Edge Impulse reserves all rights and remedies available to enforce its rights.
 *
 * Unless required by applicable law or agreed to in writing, the Software is
 * distributed on an "AS IS" BASIS, WITHOUT WARRANTIES OR CONDITIONS OF ANY KIND,
 * either express or implied. See the License for the specific language governing
 * permissions, disclaimers and limitations under the License.
 */
// Generated on: 24.12.2025 10:02:35

#include <stdio.h>
#include <stdlib.h>
#include "edge-impulse-sdk/tensorflow/lite/c/builtin_op_data.h"
#include "edge-impulse-sdk/tensorflow/lite/c/common.h"
#include "edge-impulse-sdk/tensorflow/lite/micro/micro_mutable_op_resolver.h"
#include "edge-impulse-sdk/porting/ei_classifier_porting.h"

#if EI_CLASSIFIER_PRINT_STATE
#if defined(__cplusplus) && EI_C_LINKAGE == 1
extern "C" {
    extern void ei_printf(const char *format, ...);
}
#else
extern void ei_printf(const char *format, ...);
#endif
#endif

#define STRINGIZE(x) #x
#define STRINGIZE_VALUE_OF(x) STRINGIZE(x)

#if defined (__GNUC__)  /* GNU compiler */
#define ALIGN(X) __attribute__((aligned(X)))
#define DEFINE_SECTION(x) __attribute__((section(x)))
#elif defined (_MSC_VER)
#define ALIGN(X) __declspec(align(X))
#elif defined (__TASKING__) /* TASKING Compiler */
#define ALIGN(X) __align(X)
#define DEFINE_SECTION(x) __attribute__((section(x)))
#elif defined (__ARMCC_VERSION) /* Arm Compiler */
#define ALIGN(X) __ALIGNED(x)
#define DEFINE_SECTION(x) __attribute__((section(x)))
#elif defined (__ICCARM__) /* IAR Compiler */
#define ALIGN(x) __attribute__((aligned(x)))
#define DEFINE_SECTION(x) __attribute__((section(x)))
#elif defined (__clang__) /* LLVM/Clang Compiler */
#define ALIGN(X) __ALIGNED(x)
#define DEFINE_SECTION(x) __attribute__((section(x)))
#endif

#if defined(EI_MODEL_SECTION) && (defined(__GNUC__) || defined(__clang__))
#define MODEL_SECTION(X) __attribute__((section(STRINGIZE_VALUE_OF(X))))
#else
#define MODEL_SECTION(X)
#endif

#ifndef EI_MAX_SCRATCH_BUFFER_COUNT
#ifndef CONFIG_IDF_TARGET_ESP32S3
#define EI_MAX_SCRATCH_BUFFER_COUNT 14
#else
#define EI_MAX_SCRATCH_BUFFER_COUNT 28
#endif // CONFIG_IDF_TARGET_ESP32S3
#endif // EI_MAX_SCRATCH_BUFFER_COUNT

#ifndef EI_MAX_OVERFLOW_BUFFER_COUNT
#define EI_MAX_OVERFLOW_BUFFER_COUNT 10
#endif // EI_MAX_OVERFLOW_BUFFER_COUNT

using namespace tflite;
using namespace tflite::ops;
using namespace tflite::ops::micro;

namespace {

#if defined(EI_CLASSIFIER_ALLOCATION_STATIC_HIMAX) || defined(EI_CLASSIFIER_ALLOCATION_STATIC_HIMAX_GNU)
constexpr int kTensorArenaSize = 238560;
#else
constexpr int kTensorArenaSize = 237536;
#endif

#if defined(EI_CLASSIFIER_ALLOCATION_STATIC)
#if defined (EI_TENSOR_ARENA_LOCATION)
uint8_t tensor_arena[kTensorArenaSize] ALIGN(16) DEFINE_SECTION(STRINGIZE_VALUE_OF(EI_TENSOR_ARENA_LOCATION));
#else
uint8_t tensor_arena[kTensorArenaSize] ALIGN(16);
#endif
#elif defined(EI_CLASSIFIER_ALLOCATION_STATIC_HIMAX)
#pragma Bss(".tensor_arena")
uint8_t tensor_arena[kTensorArenaSize] ALIGN(16);
#pragma Bss()
#elif defined(EI_CLASSIFIER_ALLOCATION_STATIC_HIMAX_GNU)
uint8_t tensor_arena[kTensorArenaSize] ALIGN(16) __attribute__((section(".tensor_arena")));
#else
#define EI_CLASSIFIER_ALLOCATION_HEAP 1
uint8_t* tensor_arena = NULL;
#endif

static uint8_t* tensor_boundary;
static uint8_t* current_location;

template <int SZ, class T> struct TfArray {
  int sz; T elem[SZ];
};

enum used_operators_e {
  OP_CONV_2D, OP_DEPTHWISE_CONV_2D, OP_ADD, OP_PAD, OP_SOFTMAX,  OP_LAST
};

struct TensorInfo_t { // subset of TfLiteTensor used for initialization from constant memory
  TfLiteAllocationType allocation_type;
  TfLiteType type;
  void* data;
  TfLiteIntArray* dims;
  size_t bytes;
  TfLiteQuantization quantization;
};

typedef struct {
  TfLiteTensor tensor;
  int16_t index;
} TfLiteTensorWithIndex;

typedef struct {
  TfLiteEvalTensor tensor;
  int16_t index;
} TfLiteEvalTensorWithIndex;

TfLiteContext ctx{};
static const int MAX_TFL_TENSOR_COUNT = 4;
static TfLiteTensorWithIndex tflTensors[MAX_TFL_TENSOR_COUNT];
static const int MAX_TFL_EVAL_COUNT = 4;
static TfLiteEvalTensorWithIndex tflEvalTensors[MAX_TFL_EVAL_COUNT];
TfLiteRegistration registrations[OP_LAST];

namespace g0 {
const TfArray<4, int> tensor_dimension0 = { 4, { 1,96,96,1 } };
const TfArray<1, float> quant0_scale = { 1, { 0.0039215688593685627, } };
const TfArray<1, int> quant0_zero = { 1, { -128 } };
const TfLiteAffineQuantization quant0 = { (TfLiteFloatArray*)&quant0_scale, (TfLiteIntArray*)&quant0_zero, 0 };
const MODEL_SECTION(EI_MODEL_SECTION) ALIGN(16) int32_t tensor_data1[4*2] = { 
  0, 0, 
  0, 1, 
  0, 1, 
  0, 0, 
};
const TfArray<2, int> tensor_dimension1 = { 2, { 4,2 } };
const MODEL_SECTION(EI_MODEL_SECTION) ALIGN(16) int32_t tensor_data2[5] = { 16810, -17576, -22100, -27227, -21161, };
const TfArray<1, int> tensor_dimension2 = { 1, { 5 } };
const TfArray<5, float> quant2_scale = { 5, { 0.00028945977101102471, 0.00035024411045014858, 0.00027845567092299461, 0.00022275088122114539, 0.00029602975700981915, } };
const TfArray<5, int> quant2_zero = { 5, { 0,0,0,0,0 } };
const TfLiteAffineQuantization quant2 = { (TfLiteFloatArray*)&quant2_scale, (TfLiteIntArray*)&quant2_zero, 0 };
const MODEL_SECTION(EI_MODEL_SECTION) ALIGN(16) int8_t tensor_data3[5*1*1*32] = { 
  /* [0][0][][] */ 127,38,-8,15,-53,77,114,6,48,35,-75,-13,16,86,46,65,-23,-59,-29,-43,-16,27,-58,-111,9,-27,75,-81,28,28,10,21, 
  /* [1][0][][] */ -40,72,59,81,36,62,-35,-13,-39,-42,58,15,-65,37,-127,22,28,23,11,0,-33,51,44,-10,-4,31,19,50,9,-59,28,-59, 
  /* [2][0][][] */ -100,-38,-19,-16,12,52,63,-36,74,69,-12,93,50,90,-127,-25,23,16,82,-4,-9,-55,61,-54,73,43,58,29,-41,-29,65,96, 
  /* [3][0][][] */ 10,-48,10,-9,127,-35,-84,-68,56,-68,-35,-72,-36,-23,-8,-38,-76,-33,-8,42,22,21,-42,47,59,92,24,-51,44,85,100,-114, 
  /* [4][0][][] */ -49,-40,65,0,11,39,-127,-50,65,45,62,-66,-41,-49,28,17,71,-40,-33,42,24,-61,-15,101,7,-38,-45,-84,-66,91,-6,-82, 
};
const TfArray<4, int> tensor_dimension3 = { 4, { 5,1,1,32 } };
const TfArray<5, float> quant3_scale = { 5, { 0.0046185608953237534, 0.0055884234607219696, 0.0044429819099605083, 0.0035541674587875605, 0.0047233900986611843, } };
const TfLiteAffineQuantization quant3 = { (TfLiteFloatArray*)&quant3_scale, (TfLiteIntArray*)&g0::quant2_zero, 0 };
const MODEL_SECTION(EI_MODEL_SECTION) ALIGN(16) int32_t tensor_data4[32] = { 1090, -1580, 792, -1127, 1059, 1008, 429, -962, 647, -1258, 206, -1108, -1017, -655, 248, -1720, -1249, -1001, 460, 319, -1610, 261, -1092, -319, 1008, 388, -1360, 274, -34, -159, -1016, 790, };
const TfArray<1, int> tensor_dimension4 = { 1, { 32 } };
const TfArray<32, float> quant4_scale = { 32, { 0.00011755657760659233, 6.0123293224023655e-05, 7.8467288403771818e-05, 5.8285415434511378e-05, 7.3334354965481907e-05, 5.6486216635676101e-05, 6.2743820308241993e-05, 9.6189854957628995e-05, 0.00010030438716057688, 6.012088488205336e-05, 8.9112887508235872e-05, 6.8948400439694524e-05, 6.6408836573828012e-05, 6.8358262069523335e-05, 9.8682263342197984e-05, 6.0597954870900139e-05, 5.8623278164304793e-05, 6.0019006923539564e-05, 8.9284614659845829e-05, 6.7955232225358486e-05, 6.2642466218676418e-05, 6.4005384047050029e-05, 6.2174927734304219e-05, 6.1721722886431962e-05, 7.6842559792567044e-05, 9.7054406069219112e-05, 6.5178763179574162e-05, 7.9063174780458212e-05, 6.962090265005827e-05, 0.00010653049685060978, 5.8188492403132841e-05, 7.6423690188676119e-05, } };
const TfArray<32, int> quant4_zero = { 32, { 0,0,0,0,0,0,0,0,0,0,0,0,0,0,0,0,0,0,0,0,0,0,0,0,0,0,0,0,0,0,0,0 } };
const TfLiteAffineQuantization quant4 = { (TfLiteFloatArray*)&quant4_scale, (TfLiteIntArray*)&quant4_zero, 0 };
const MODEL_SECTION(EI_MODEL_SECTION) ALIGN(16) int8_t tensor_data5[32*1*1*48] = { 
  /* [0][0][][] */ 6,13,127,51,96,29,18,-36,94,-36,4,-9,29,20,68,84,-47,-11,43,21,-30,-23,20,109,-34,16,21,32,72,-8,-14,-24,29,-18,-43,113,-22,36,-47,14,72,18,18,97,91,-58,31,-16, 
  /* [1][0][][] */ -80,-4,-97,-42,-69,37,2,-29,99,-127,-122,59,31,-60,-6,33,70,-74,-2,73,-83,-43,-4,-3,9,-9,-60,73,-30,-34,51,-94,34,55,-46,-13,11,25,-52,-99,-86,7,-58,-55,-59,-7,-67,-85, 
  /* [2][0][][] */ -71,44,-52,86,-29,-20,66,84,-58,66,-58,104,46,5,6,-63,-23,5,-51,47,-44,13,97,-18,-24,63,91,15,-31,76,82,67,-32,11,-39,-63,-41,61,100,2,-92,-84,7,-108,-127,107,4,-33, 
  /* [3][0][][] */ 42,-32,4,-46,-84,17,-124,45,25,-12,39,-25,62,63,46,32,73,67,-85,-11,91,-107,-85,-72,-44,-127,-99,78,46,-121,55,9,-76,-58,-32,-43,-115,-45,18,81,-46,-60,-115,-24,41,3,-75,-103, 
  /* [4][0][][] */ 3,109,10,69,-34,1,33,38,58,100,-7,72,-65,6,-43,-39,18,30,-45,19,110,-37,94,-27,-29,-1,79,-35,-29,56,-10,-30,81,120,37,-53,-5,-1,-54,61,-48,-80,-36,-127,16,115,62,79, 
  /* [5][0][][] */ 4,-77,66,108,35,-99,41,90,114,-83,-2,-48,2,127,10,57,67,81,-104,121,69,73,34,-21,-89,-54,-28,-72,89,69,46,-70,-59,38,-43,-1,-96,-31,71,68,-91,-56,45,-32,-96,58,62,-31, 
  /* [6][0][][] */ 1,-36,101,73,-48,-65,24,92,8,-84,32,-66,93,51,127,-72,45,5,17,111,-39,-91,99,76,-25,-41,-7,-5,7,-64,49,-37,-106,-96,-20,-101,-1,49,-84,107,102,65,30,-6,-6,85,-71,-52, 
  /* [7][0][][] */ 57,14,-38,-50,-55,44,-28,-28,52,-17,-68,-17,35,-72,15,27,9,-18,-19,47,3,-3,-30,36,-53,44,6,18,-64,33,-37,3,-2,-13,10,33,-79,36,-34,-39,40,-58,30,127,15,-30,31,-90, 
  /* [8][0][][] */ -30,25,-32,-34,16,32,-36,8,-39,33,-4,62,-16,-13,-84,-57,-13,72,-43,5,39,0,61,62,-69,10,39,-27,-27,35,-29,68,61,-1,39,15,70,-52,8,45,5,51,-43,-127,-29,8,10,80, 
  /* [9][0][][] */ -6,-24,74,31,43,-95,-50,-111,41,45,-39,18,-55,-89,-122,-49,5,-28,-120,-77,-16,60,-127,-96,73,-38,-40,-6,-30,-72,-111,61,26,-6,-5,-28,-99,-17,-62,-64,12,-64,41,-114,43,11,-124,18, 
  /* [10][0][][] */ -80,49,42,-28,-17,72,68,34,32,11,-27,-29,69,53,-63,21,-11,55,-94,-29,7,30,40,-61,23,44,-58,-60,-12,66,-41,-45,60,78,94,34,-24,0,-1,40,-28,56,-90,-99,-127,-16,12,-29, 
  /* [11][0][][] */ 49,25,-36,60,103,13,22,-12,67,51,-82,43,-11,-89,19,-59,-38,-111,21,3,2,33,-8,-78,-104,-109,-60,35,41,-28,-1,-16,-127,-77,-18,14,-78,37,-42,-67,-45,96,-82,-60,-53,-68,-92,-108, 
  /* [12][0][][] */ -41,41,-62,-21,73,-29,-51,13,-41,26,-25,-14,-29,-14,45,-53,-80,-51,-38,-65,4,-33,-8,92,-30,-16,55,-96,44,-9,-55,98,-89,-79,-63,-28,-30,-71,-32,10,52,47,-127,-64,-1,-93,-45,74, 
  /* [13][0][][] */ 31,-65,63,55,74,55,51,47,-13,-76,-19,-42,18,60,46,-18,-127,-80,-81,32,38,-39,75,-26,-65,29,-33,-10,-72,-86,46,39,-7,57,-48,-11,-80,-34,-22,53,-63,66,-59,-64,-93,-2,-33,-52, 
  /* [14][0][][] */ 67,-41,72,52,70,28,-6,-23,57,-2,50,51,28,-54,2,-58,-14,10,64,41,-31,22,6,50,-35,-45,16,24,-80,-63,-51,21,87,-32,25,55,67,80,9,-85,30,-50,82,127,123,-26,19,-27, 
  /* [15][0][][] */ -14,-64,-56,28,58,-107,24,-127,33,-34,-87,-29,84,-33,-103,-123,61,-30,-110,-8,5,-21,26,75,52,42,22,64,-8,24,21,-121,-9,-31,-98,-38,-97,73,58,-92,-11,77,-78,33,2,-104,-78,-110, 
  /* [16][0][][] */ -95,-42,62,-78,14,81,-90,39,20,-6,-127,50,59,-89,-90,-32,97,53,31,33,99,51,-66,-17,-38,69,-61,37,-45,10,16,1,-95,53,73,30,-66,15,-37,-37,-26,-84,26,82,13,82,84,-33, 
  /* [17][0][][] */ 8,-122,5,51,-62,-125,-82,-112,16,-103,55,23,67,33,-127,23,17,26,72,81,-107,-34,-9,-71,0,39,-92,2,74,-71,-51,47,-50,-43,7,-17,-66,69,-103,-50,-109,-13,-37,-33,-16,-11,56,-123, 
  /* [18][0][][] */ -127,71,37,-28,-16,-67,-49,16,-35,77,-71,-22,-74,46,10,-34,6,-7,11,4,78,-19,21,-34,26,-85,-35,59,40,42,14,43,0,-1,-66,-94,-11,4,-21,60,-61,-6,-19,-77,-100,17,28,3, 
  /* [19][0][][] */ -78,45,29,43,21,-96,56,87,85,-35,-6,13,-120,41,-86,54,81,-62,39,32,2,80,-26,-35,40,-67,45,-55,-80,-78,-24,39,83,-47,41,-46,24,-84,-23,-72,7,-127,-93,-61,-123,44,84,-47, 
  /* [20][0][][] */ -27,26,37,47,-96,51,-8,14,-7,-24,-94,-33,-22,39,14,-83,-68,-68,-79,-55,-16,-73,-103,-83,46,-82,-56,21,-10,-24,-70,69,126,3,-48,15,3,-48,-49,-127,-93,-50,-112,-49,-44,-90,-93,56, 
  /* [21][0][][] */ 58,87,60,-75,81,-70,65,18,18,-34,-101,57,-70,53,-51,-105,-81,-12,3,4,88,-23,72,-118,24,-91,-1,74,7,2,14,-34,33,28,-84,-89,121,75,-108,-13,4,-32,23,-13,-127,-57,-68,92, 
  /* [22][0][][] */ 5,-47,-79,-106,75,-64,87,24,-83,77,-66,-108,70,-99,-120,-77,24,48,-109,-71,48,-89,3,4,81,-7,-127,88,-76,-82,-69,-119,15,36,-14,-17,-12,-30,-83,-101,-15,-23,-23,66,43,-118,70,-46, 
  /* [23][0][][] */ 43,-93,-11,51,53,-71,-2,-102,25,-117,43,68,48,-127,-20,-67,109,-20,-117,41,81,-75,91,-90,-37,-9,110,-10,53,39,64,-74,3,49,37,61,73,-36,-65,-12,-107,-35,1,-92,-64,-68,116,43, 
  /* [24][0][][] */ -106,-13,-86,-21,-79,-65,-33,-39,39,126,50,53,4,82,-74,-127,-32,59,7,-29,100,-34,-14,-34,28,-46,66,39,98,73,36,-29,9,40,50,36,-16,-88,69,13,-89,-96,100,-57,2,8,64,80, 
  /* [25][0][][] */ -127,-18,-86,2,28,-64,-78,39,-52,-45,-81,22,-20,18,-103,-44,-46,44,-23,-60,46,55,5,-33,-24,-66,-60,-38,38,-44,35,69,57,-52,23,-6,65,-83,-17,-6,-88,35,-57,-32,-14,26,38,27, 
  /* [26][0][][] */ 33,-127,-34,-40,-88,-35,11,-36,-84,-70,79,41,-94,-52,9,-42,67,-2,-71,-38,-14,28,55,3,35,45,-14,36,-19,-19,-102,30,-47,-79,-111,-110,-99,48,-69,73,-84,6,37,19,-65,35,-59,58, 
  /* [27][0][][] */ -40,27,-112,-53,-89,-54,-27,4,-43,91,-23,-64,-55,57,3,-67,48,-2,11,-34,-48,16,-10,-3,-59,-8,-82,-61,66,37,-9,6,37,67,-58,-81,-55,-106,-73,89,-127,5,2,-42,17,30,62,77, 
  /* [28][0][][] */ 83,11,85,29,-127,-42,-62,-71,-62,-61,49,51,-83,-56,-13,61,62,81,-40,75,-32,17,-88,-41,-115,41,-81,-84,-71,-66,-5,-28,-97,5,52,53,20,-69,-42,10,63,45,-72,12,-75,-18,-1,30, 
  /* [29][0][][] */ 23,25,37,-27,-56,11,-74,-3,59,-18,-127,-45,78,-61,-49,-37,-33,55,18,-52,-39,-16,31,-18,-28,-1,-2,-68,-69,-9,56,-14,47,-1,-35,-9,-6,16,11,33,50,60,-28,52,-5,51,-26,-4, 
  /* [30][0][][] */ -3,-60,-82,33,-104,7,-72,-22,87,-33,-28,-59,-106,-4,29,10,-6,11,56,-105,31,-114,-127,9,-110,12,-80,86,-12,-116,-106,-7,-86,-66,-119,-77,-9,-43,-9,22,65,-71,-38,75,67,-59,88,35, 
  /* [31][0][][] */ 94,-82,28,62,43,39,-54,-25,-37,-28,-59,-56,127,-99,41,74,-7,-45,67,34,58,34,-5,111,27,-86,61,15,-62,-54,30,124,35,3,5,30,71,-17,-17,-91,64,-30,-14,31,21,-39,-25,41, 
};
const TfArray<4, int> tensor_dimension5 = { 4, { 32,1,1,48 } };
const TfArray<32, float> quant5_scale = { 32, { 0.0049961544573307037, 0.0025552399456501007, 0.0033348596189171076, 0.0024771301541477442, 0.0031167101114988327, 0.002400664146989584, 0.0026666123885661364, 0.0040880688466131687, 0.0042629363015294075, 0.002555137500166893, 0.0037872977554798126, 0.0029303068295121193, 0.0028223753906786442, 0.0029052260797470808, 0.0041939960792660713, 0.0025754130911082029, 0.0024914892856031656, 0.0025508077815175056, 0.0037945960648357868, 0.0028880974277853966, 0.0026623047888278961, 0.0027202288620173931, 0.0026424343232065439, 0.0026231731753796339, 0.0032658088020980358, 0.0041248123161494732, 0.0027700972277671099, 0.0033601848408579826, 0.0029588881880044937, 0.0045275459997355938, 0.0024730109144002199, 0.0032480068039149046, } };
const TfLiteAffineQuantization quant5 = { (TfLiteFloatArray*)&quant5_scale, (TfLiteIntArray*)&g0::quant4_zero, 0 };
const MODEL_SECTION(EI_MODEL_SECTION) ALIGN(16) int32_t tensor_data6[48] = { 1139, -756, 4302, 1009, 1669, -190, 1046, 3831, -1923, -535, -678, 2912, 1648, 1699, 5932, -1863, -2750, 6323, 1889, 2002, 3283, 6842, 8329, 383, -925, 738, -226, -1066, 1294, 1086, 2715, 5495, -472, -93, 3969, 1319, 3279, 2523, 523, -814, 3355, -593, 2556, 107, 353, 1794, -1008, 2505, };
const TfArray<1, int> tensor_dimension6 = { 1, { 48 } };
const TfArray<48, float> quant6_scale = { 48, { 0.00043606490362435579, 0.00046103965723887086, 0.00016635932843200862, 0.00041663591400720179, 0.00032446518889628351, 0.00044392442214302719, 0.00030034678638912737, 0.00019116354815196246, 0.00029206747421994805, 0.00053613376803696156, 0.00032446422846987844, 0.00023933709599077702, 0.00033253073343075812, 0.00036185100907459855, 0.00016961230721790344, 0.000299757783068344, 0.00025384381297044456, 0.00015253655146807432, 0.00033217031159438193, 0.0003164642839692533, 0.00023612362565472722, 0.00013964965182822198, 0.00011780425847973675, 0.00058344379067420959, 0.00050111114978790283, 0.00039044322329573333, 0.00038234351086430252, 0.00025635596830397844, 0.00035866821417585015, 0.00036675587762147188, 0.00018262336379848421, 0.0001472893200116232, 0.00036158811417408288, 0.00035756730358116329, 0.00019642744155135006, 0.00038487053825519979, 0.00024920675787143409, 0.00021229934645816684, 0.00050123821711167693, 0.00039344179094769061, 0.00020922251860611141, 0.00073508295463398099, 0.00031048335949890316, 0.0006998901953920722, 0.00061678845668211579, 0.00030661578057333827, 0.00037764309672638774, 0.00031391947413794696, } };
const TfArray<48, int> quant6_zero = { 48, { 0,0,0,0,0,0,0,0,0,0,0,0,0,0,0,0,0,0,0,0,0,0,0,0,0,0,0,0,0,0,0,0,0,0,0,0,0,0,0,0,0,0,0,0,0,0,0,0 } };
const TfLiteAffineQuantization quant6 = { (TfLiteFloatArray*)&quant6_scale, (TfLiteIntArray*)&quant6_zero, 0 };
const MODEL_SECTION(EI_MODEL_SECTION) ALIGN(16) int8_t tensor_data7[48*1*1*8] = { 
  /* [0][0][][] */ -36,-27,127,11,25,18,4,-80, 
  /* [1][0][][] */ 72,-62,49,-60,0,-60,127,-7, 
  /* [2][0][][] */ 56,84,69,-76,-86,11,127,-10, 
  /* [3][0][][] */ 6,31,23,-50,-5,-41,127,-3, 
  /* [4][0][][] */ 127,-32,-59,-32,-91,-60,-7,67, 
  /* [5][0][][] */ 16,75,127,-18,7,-26,13,-51, 
  /* [6][0][][] */ 127,101,-26,106,-78,22,34,98, 
  /* [7][0][][] */ -10,-7,-37,35,35,-127,-122,-13, 
  /* [8][0][][] */ 92,53,-21,60,-80,43,-127,-65, 
  /* [9][0][][] */ 127,-31,-33,70,15,-50,39,-77, 
  /* [10][0][][] */ 85,34,-17,25,-27,127,51,-2, 
  /* [11][0][][] */ 109,-47,-20,-127,117,-59,-61,62, 
  /* [12][0][][] */ -67,97,86,-53,17,63,-83,127, 
  /* [13][0][][] */ 127,16,-89,35,20,-109,45,-81, 
  /* [14][0][][] */ 110,35,-11,-11,-127,23,-69,-5, 
  /* [15][0][][] */ -6,-6,-97,-43,-123,-53,84,127, 
  /* [16][0][][] */ -22,-29,127,-25,97,-26,-83,-45, 
  /* [17][0][][] */ 17,-20,61,-1,127,-58,-52,9, 
  /* [18][0][][] */ 100,-52,127,40,-45,40,-51,-23, 
  /* [19][0][][] */ 63,64,62,-98,-61,-127,2,-54, 
  /* [20][0][][] */ 51,-49,23,127,33,-72,-61,58, 
  /* [21][0][][] */ 86,7,-67,-127,28,-41,-9,81, 
  /* [22][0][][] */ -5,-127,-63,-41,73,-20,110,-34, 
  /* [23][0][][] */ -28,19,33,-39,-106,-127,3,-37, 
  /* [24][0][][] */ 127,10,60,26,-9,-9,-91,50, 
  /* [25][0][][] */ 45,47,-53,-46,15,-23,-36,127, 
  /* [26][0][][] */ -106,-44,35,-127,124,9,-41,-76, 
  /* [27][0][][] */ 127,124,3,-68,22,76,19,11, 
  /* [28][0][][] */ 52,127,-46,43,28,-90,0,83, 
  /* [29][0][][] */ 89,8,59,127,79,-57,-92,82, 
  /* [30][0][][] */ 124,-127,-85,77,35,33,-95,124, 
  /* [31][0][][] */ 88,-97,16,57,-72,-106,-127,37, 
  /* [32][0][][] */ -51,-106,6,-127,114,-11,-14,-97, 
  /* [33][0][][] */ 10,12,6,40,69,-123,127,92, 
  /* [34][0][][] */ -80,51,107,-127,121,-15,-102,78, 
  /* [35][0][][] */ -80,20,40,76,-21,127,7,-47, 
  /* [36][0][][] */ 83,16,-9,-127,45,10,30,39, 
  /* [37][0][][] */ 27,28,3,-8,-71,127,39,51, 
  /* [38][0][][] */ -17,-42,36,96,-13,61,-8,127, 
  /* [39][0][][] */ 21,9,-127,64,-2,-53,-15,51, 
  /* [40][0][][] */ 58,15,-121,0,-59,64,-82,127, 
  /* [41][0][][] */ 42,-1,-2,-39,-108,-127,0,7, 
  /* [42][0][][] */ -90,70,-96,94,-37,127,-60,-118, 
  /* [43][0][][] */ -24,6,-51,-127,-20,-8,-27,-81, 
  /* [44][0][][] */ 64,15,17,65,36,127,-58,25, 
  /* [45][0][][] */ 10,67,-40,22,127,-41,-62,2, 
  /* [46][0][][] */ 35,-45,-3,127,80,-1,-23,55, 
  /* [47][0][][] */ -2,-65,32,3,127,4,51,4, 
};
const TfArray<4, int> tensor_dimension7 = { 4, { 48,1,1,8 } };
const TfArray<48, float> quant7_scale = { 48, { 0.0026575394440442324, 0.0028097447939217091, 0.0010138547513633966, 0.002539132023230195, 0.0019774099346250296, 0.002705438295379281, 0.0018304234836250544, 0.0011650207452476025, 0.001779966289177537, 0.0032673957757651806, 0.0019774041138589382, 0.0014586080797016621, 0.0020265642087906599, 0.002205252880230546, 0.0010336795821785927, 0.0018268339335918427, 0.0015470172511413693, 0.00092961371410638094, 0.0020243676844984293, 0.0019286494934931397, 0.0014390239957720041, 0.00085107621271163225, 0.0007179423701018095, 0.0035557204391807318, 0.0030539552681148052, 0.0023795042652636766, 0.0023301416076719761, 0.0015623272629454732, 0.0021858557593077421, 0.002235144842416048, 0.0011129737831652164, 0.00089763518190011382, 0.0022036505397409201, 0.0021791462786495686, 0.0011971008498221636, 0.0023455421905964613, 0.0015187574317678809, 0.0012938301078975201, 0.003054729662835598, 0.0023977786768227816, 0.0012750787427648902, 0.0044798650778830051, 0.001892199506983161, 0.0042653875425457954, 0.0037589350249618292, 0.0018686291296035051, 0.0023014955222606659, 0.0019131404114887118, } };
const TfLiteAffineQuantization quant7 = { (TfLiteFloatArray*)&quant7_scale, (TfLiteIntArray*)&g0::quant6_zero, 0 };
const MODEL_SECTION(EI_MODEL_SECTION) ALIGN(16) int32_t tensor_data8[8] = { -9294, -3279, -477, -10569, 3189, -8243, 5580, 12419, };
const TfArray<1, int> tensor_dimension8 = { 1, { 8 } };
const TfArray<8, float> quant8_scale = { 8, { 0.00019276601960882545, 0.00016184990818146616, 9.5177747425623238e-05, 0.00015946799248922616, 0.00011607466876739636, 7.6265649113338441e-05, 8.7756241555325687e-05, 0.00011987360630882904, } };
const TfArray<8, int> quant8_zero = { 8, { 0,0,0,0,0,0,0,0 } };
const TfLiteAffineQuantization quant8 = { (TfLiteFloatArray*)&quant8_scale, (TfLiteIntArray*)&quant8_zero, 0 };
const MODEL_SECTION(EI_MODEL_SECTION) ALIGN(16) int8_t tensor_data9[8*1*1*48] = { 
  /* [0][0][][] */ 127,-21,15,-37,11,51,-7,39,105,-73,55,26,-54,83,21,-44,4,-11,-26,-23,10,-58,14,-38,-44,-29,-42,-37,-31,62,-12,16,14,-41,17,-29,53,-62,-70,-4,25,-18,-74,-3,44,-47,50,-33, 
  /* [1][0][][] */ 56,-6,-35,46,50,58,27,44,78,-88,4,6,64,41,-27,-11,-51,-43,-86,-13,-9,-55,42,107,-3,-70,-7,53,-12,59,-56,127,-31,51,-14,-18,-79,-4,-20,-38,-38,3,-47,59,39,-5,17,-96, 
  /* [2][0][][] */ -37,-34,-62,29,-82,-34,1,70,-88,-78,-86,-42,-9,10,-115,9,50,-83,10,-34,84,101,-48,3,27,127,-1,-78,-14,18,76,-3,5,51,86,-51,56,19,77,87,-33,78,40,13,-79,82,-22,74, 
  /* [3][0][][] */ 9,-38,-32,17,-20,27,-12,51,75,105,-127,-34,12,7,-16,73,-62,-4,-18,49,-34,-20,84,10,21,12,-38,68,-26,18,-21,-43,-11,24,26,26,43,-3,18,2,-53,84,68,12,33,-30,-22,-55, 
  /* [4][0][][] */ -31,-62,55,-26,5,109,-66,-82,27,-35,64,42,-93,-53,-38,12,70,17,-20,56,-50,-27,127,-65,-82,5,-29,-29,8,-23,-8,75,-67,5,-38,44,-9,17,-5,29,-42,-4,-22,21,127,47,-34,15, 
  /* [5][0][][] */ -40,-59,37,-127,-12,-2,-36,-31,3,87,-27,86,-68,14,50,13,62,73,58,5,6,11,-30,-33,50,-70,9,-40,11,-22,29,-57,22,-24,76,-16,-34,54,50,72,110,28,6,-19,-12,4,-34,33, 
  /* [6][0][][] */ -67,-52,13,6,-38,-62,26,-46,-104,4,-118,28,23,-22,59,30,-16,8,35,127,-29,0,55,59,-83,-34,73,23,16,-5,-35,-28,-44,70,74,-90,-68,86,34,-11,-69,80,57,-23,3,-33,-36,-10, 
  /* [7][0][][] */ 18,-23,29,-19,-2,37,-53,-40,-127,-27,96,20,-5,-17,32,-2,11,44,-13,-33,-42,7,-12,-61,54,10,-38,13,5,-37,-17,-65,-110,-68,-40,2,48,-21,-43,-5,60,-10,36,-36,14,-38,34,15, 
};
const TfArray<4, int> tensor_dimension9 = { 4, { 8,1,1,48 } };
const TfArray<8, float> quant9_scale = { 8, { 0.0081925559788942337, 0.006878620944917202, 0.0040450543165206909, 0.0067773894406855106, 0.0049331733025610447, 0.0032412898726761341, 0.0037296402733772993, 0.0050946283154189587, } };
const TfLiteAffineQuantization quant9 = { (TfLiteFloatArray*)&quant9_scale, (TfLiteIntArray*)&g0::quant8_zero, 0 };
const MODEL_SECTION(EI_MODEL_SECTION) ALIGN(16) int32_t tensor_data10[48] = { -8582, -401, 5295, 1390, -1050, -4675, 329, 13732, 4991, -3653, -6080, -5874, -1387, 15608, 16857, -1028, 6630, -2913, 2508, -749, 8417, -3840, 421, -696, -862, -6119, -1575, -2389, 2662, -20070, -3844, 3856, -927, 727, -2159, -1226, 9149, -3113, 1040, -10880, -1123, 18600, -7747, 2329, 5405, 206, 9636, -4019, };
const TfArray<48, float> quant10_scale = { 48, { 0.00028881381149403751, 0.00015838055696804076, 0.00017547162133269012, 0.00011021662794519216, 0.00030234365840442479, 0.00016579731891397387, 0.00018745330453384668, 0.00010212415509158745, 0.00026528220041655004, 0.0003524519270285964, 0.00041692756349220872, 7.0086483901832253e-05, 0.00038206318276934326, 9.0133617050014436e-05, 9.4278337201103568e-05, 0.00018461077706888318, 0.00017692262190394104, 0.00018256666953675449, 0.00017264336929656565, 0.0003545388753991574, 9.3713068054057658e-05, 0.00015822413843125105, 0.00022914077271707356, 0.0002881079853978008, 0.00019313096709083766, 0.00016883366333786398, 0.00028534518787637353, 0.00040960134356282651, 0.00013203312119003385, 0.00011103318684035912, 0.00022043842182029039, 0.00017792916332837194, 8.5889121692162007e-05, 0.00036645290674641728, 0.00011344511585775763, 7.0495036197826266e-05, 0.0001674961531534791, 0.00018344669661018997, 0.00010232283239020035, 0.00011457612708909437, 0.00024099851725623012, 4.228520265314728e-05, 0.00025977331097237766, 0.00018909192294813693, 0.00016342643357347697, 0.00013825477799400687, 0.00010832939733518288, 0.00015600974438712001, } };
const TfLiteAffineQuantization quant10 = { (TfLiteFloatArray*)&quant10_scale, (TfLiteIntArray*)&g0::quant6_zero, 0 };
const MODEL_SECTION(EI_MODEL_SECTION) ALIGN(16) int8_t tensor_data11[1*3*3*48] = { 
  /* [0][0][][] */ 97,56,25,79,4,15,-59,7,30,-66,47,23,16,-118,-68,51,81,38,-74,2,59,40,-31,-13,95,8,35,9,-57,-24,-6,-67,127,12,91,37,-43,37,127,24,-50,88,-69,-61,2,-127,-31,33, 114,127,-44,127,23,34,-53,-127,35,33,127,47,-21,-53,-43,7,-54,127,-78,20,106,127,33,-32,60,26,24,127,-127,47,-30,-127,-14,-44,87,127,-70,127,82,72,-122,-52,92,-40,-13,13,-102,127, 74,31,7,25,18,0,-44,22,21,-94,38,-15,7,-118,-24,-1,77,-10,-42,-34,51,11,-29,43,62,24,13,10,-6,-63,-11,-48,125,0,67,43,-4,30,72,11,-42,79,60,50,10,77,29,-22, 
  /* [0][1][][] */ -5,-44,-77,96,14,57,55,-54,15,86,-41,121,127,-8,-53,-72,-52,93,89,-3,-127,1,27,-108,62,33,37,9,16,117,33,28,56,127,45,115,-85,-6,-57,111,88,25,84,-127,-14,-95,-26,102, 63,-58,-33,-122,108,-8,127,-123,-127,127,1,80,-101,127,127,-9,-127,31,30,127,62,-4,127,-8,-127,127,51,-106,-42,92,-127,69,31,-127,42,121,127,34,-23,127,127,-38,-5,-31,78,-64,-15,26, 19,-48,-127,27,-21,127,14,-44,15,75,-38,127,-17,7,-43,-28,-86,63,127,-47,-113,11,-63,127,29,9,29,34,29,127,54,17,-2,-24,-13,-96,-49,-19,-27,76,74,112,-8,104,-34,101,-48,73, 
  /* [0][2][][] */ -10,-34,8,14,-18,-2,-27,-11,22,-43,15,8,16,-52,-64,47,59,-9,1,11,-16,29,-22,3,53,18,-6,13,24,-8,37,4,38,21,127,39,-19,23,69,6,-17,114,127,-34,-65,-119,-38,7, -127,-35,-51,11,-127,4,-66,-9,8,106,-56,75,-19,11,-41,127,-85,21,-91,-44,-18,34,-17,-32,-11,53,-127,-37,-26,116,55,14,28,-29,3,28,-27,14,-46,42,-92,-101,-93,-53,-127,31,-127,106, -21,-47,-13,-9,20,-13,-34,-1,29,-59,2,32,-10,-19,-12,-9,84,-60,74,0,-55,31,-20,51,33,-48,-3,-2,26,-4,68,2,75,7,99,51,0,21,126,-22,2,127,-49,40,-51,84,-22,-63, 
};
const TfArray<4, int> tensor_dimension11 = { 4, { 1,3,3,48 } };
const TfArray<48, float> quant11_scale = { 48, { 0.012274586595594883, 0.0067311734892427921, 0.0074575436301529408, 0.0046842065639793873, 0.012849604710936546, 0.0070463856682181358, 0.0079667652025818825, 0.004340276587754488, 0.011274493299424648, 0.014979206956923008, 0.017719421535730362, 0.0029786755330860615, 0.016237685456871986, 0.003830678528174758, 0.0040068291127681732, 0.0078459577634930611, 0.0075192111544311047, 0.0077590830624103546, 0.0073373429477214813, 0.015067901462316513, 0.0039828051812946796, 0.0067245257087051868, 0.0097384825348854065, 0.012244588695466518, 0.0082080662250518799, 0.0071754306554794312, 0.012127170339226723, 0.017408056184649467, 0.005611407570540905, 0.0047189104370772839, 0.0093686329200863838, 0.0075619891285896301, 0.0036502876318991184, 0.015574248507618904, 0.0048214173875749111, 0.0029960391111671925, 0.0071185864508152008, 0.0077964845113456249, 0.0043487204238772392, 0.0048694852739572525, 0.01024243701249361, 0.0017971211345866323, 0.011040365323424339, 0.0080364067107439041, 0.0069456235505640507, 0.005875827744603157, 0.004603999201208353, 0.0066304136998951435, } };
const TfLiteAffineQuantization quant11 = { (TfLiteFloatArray*)&quant11_scale, (TfLiteIntArray*)&g0::quant6_zero, 3 };
const MODEL_SECTION(EI_MODEL_SECTION) ALIGN(16) int32_t tensor_data12[48] = { 27886, 1801, 861, 600, 3245, 850, 3369, 2084, 1676, -3084, 10534, 706, 3373, 1401, 2614, 647, 3625, -417, 8524, -15, 2374, -575, 1091, 2624, 758, -2132, 937, 5854, 118, 5178, 713, 7032, 300, 2502, -27, -892, 917, 1897, 56, 1167, 3713, -418, 3859, 2253, 410, 1987, 1411, -659, };
const TfArray<48, float> quant12_scale = { 48, { 4.1305065678898245e-05, 0.00039095315150916576, 0.00034854086698032916, 0.00054964382434263825, 0.00022628332953900099, 0.00058909947983920574, 0.00023855431936681271, 0.00032008677953854203, 0.00030928055639378726, 0.00024794362252578139, 0.00010865031072171405, 0.00031365387258119881, 0.00023919944942463189, 0.00030461189453490078, 0.00026935734786093235, 0.00046934120473451912, 0.00021179359464440495, 0.00041017076000571251, 0.00012370236800052226, 0.0004223962314426899, 0.00024087470956146717, 0.00035849085543304682, 0.00036291315336711705, 0.00025581344380043447, 0.00030770961893722415, 0.00029311634716577828, 0.0003772085765376687, 0.00016934789891820401, 0.00048998132115229964, 0.00014372887380886823, 0.00046228495193645358, 0.00013175670756027102, 0.00051525660092011094, 0.00033932345104403794, 0.00033887001336552203, 0.00042628595838323236, 0.00059562863316386938, 0.00019534560851752758, 0.00068236817605793476, 0.00031968092662282288, 0.0002421886456431821, 0.00044547725701704621, 0.00020567435421980917, 0.00026134465588256717, 0.00040248871664516628, 0.00043267165892757475, 0.0003767638118006289, 0.00043942013871856034, } };
const TfLiteAffineQuantization quant12 = { (TfLiteFloatArray*)&quant12_scale, (TfLiteIntArray*)&g0::quant6_zero, 0 };
const MODEL_SECTION(EI_MODEL_SECTION) ALIGN(16) int8_t tensor_data13[48*1*1*8] = { 
  /* [0][0][][] */ -127,70,-33,-2,54,41,-2,-89, 
  /* [1][0][][] */ 2,-39,-37,-15,-38,-127,24,8, 
  /* [2][0][][] */ -86,87,41,-39,-49,33,-50,127, 
  /* [3][0][][] */ 55,81,75,-3,-74,-127,31,-47, 
  /* [4][0][][] */ 2,19,-77,2,-127,73,59,56, 
  /* [5][0][][] */ -34,34,25,-19,-60,-127,-55,-3, 
  /* [6][0][][] */ -100,127,114,6,-124,-100,26,-43, 
  /* [7][0][][] */ 4,9,27,79,7,-127,-5,40, 
  /* [8][0][][] */ 127,46,-85,48,-86,-25,-110,-25, 
  /* [9][0][][] */ 106,-35,-56,-87,11,-14,-46,127, 
  /* [10][0][][] */ -67,-12,-15,127,7,45,6,-107, 
  /* [11][0][][] */ 45,22,38,-15,33,111,127,80, 
  /* [12][0][][] */ -59,-70,-35,-66,127,1,-15,31, 
  /* [13][0][][] */ -34,-28,13,68,-12,-127,43,76, 
  /* [14][0][][] */ 95,85,107,36,97,-127,-94,-46, 
  /* [15][0][][] */ -16,59,127,25,-36,33,25,-83, 
  /* [16][0][][] */ -127,-62,75,-59,121,-35,-25,37, 
  /* [17][0][][] */ 54,-41,-73,-5,-1,127,-21,43, 
  /* [18][0][][] */ 1,127,32,-33,-25,35,74,-104, 
  /* [19][0][][] */ 22,127,82,100,-57,44,33,33, 
  /* [20][0][][] */ 31,37,98,-127,-104,-17,98,-20, 
  /* [21][0][][] */ -96,27,9,-68,125,18,127,28, 
  /* [22][0][][] */ 88,-46,-94,78,51,-79,-37,127, 
  /* [23][0][][] */ 37,-121,-127,-48,75,-20,-68,120, 
  /* [24][0][][] */ 72,18,-64,18,-72,74,-127,92, 
  /* [25][0][][] */ 3,-35,31,21,127,-25,-63,-46, 
  /* [26][0][][] */ 52,92,127,-41,-36,-15,51,-92, 
  /* [27][0][][] */ -48,57,92,-64,28,32,53,-127, 
  /* [28][0][][] */ 41,-11,106,82,80,-10,35,127, 
  /* [29][0][][] */ 61,53,114,7,-90,66,-127,123, 
  /* [30][0][][] */ 13,-11,-75,71,-127,-63,-19,51, 
  /* [31][0][][] */ 17,109,127,-86,-53,54,105,-91, 
  /* [32][0][][] */ 57,-23,16,27,108,127,41,-28, 
  /* [33][0][][] */ 19,-19,-127,16,20,-4,-41,48, 
  /* [34][0][][] */ 50,-41,18,-127,10,108,-35,-17, 
  /* [35][0][][] */ -26,-8,64,2,23,-127,-1,-7, 
  /* [36][0][][] */ -26,3,-25,-127,3,-13,10,-31, 
  /* [37][0][][] */ 98,-4,-26,-88,-93,127,-73,-111, 
  /* [38][0][][] */ 88,-42,-13,86,64,32,-16,127, 
  /* [39][0][][] */ 127,76,15,59,-2,93,-38,-2, 
  /* [40][0][][] */ 28,-105,-127,-30,21,8,-32,53, 
  /* [41][0][][] */ 2,-35,-127,-121,-21,-27,-60,-24, 
  /* [42][0][][] */ 67,127,68,109,-108,-16,13,12, 
  /* [43][0][][] */ 88,-64,-59,-127,-64,-44,28,84, 
  /* [44][0][][] */ -13,58,127,-79,-68,-23,97,-90, 
  /* [45][0][][] */ 14,23,-127,74,-28,15,4,65, 
  /* [46][0][][] */ 73,-37,-68,-127,4,-43,-35,41, 
  /* [47][0][][] */ 82,-127,112,-54,84,-22,27,-9, 
};
const TfArray<48, float> quant13_scale = { 48, { 0.00030980102019384503, 0.002932271920144558, 0.0026141665875911713, 0.0041225021705031395, 0.0016971963923424482, 0.0044184322468936443, 0.0017892327159643173, 0.0024007519241422415, 0.0023197017144411802, 0.0018596554873511195, 0.00081491161836311221, 0.002352503128349781, 0.001794071402400732, 0.0022846853826195002, 0.0020202652085572481, 0.0035202072467654943, 0.0015885188477113843, 0.0030764101538807154, 0.00092780677368864417, 0.0031681051477789879, 0.0018066363409161568, 0.0026887946296483278, 0.0027219632174819708, 0.0019186815479770303, 0.0023079193197190762, 0.0021984651684761047, 0.0028291833586990833, 0.0012701626401394606, 0.003675014479085803, 0.0010780119337141514, 0.0034672829788178205, 0.00098821683786809444, 0.0038645872846245766, 0.0025450328830629587, 0.0025416321586817503, 0.0031972792930901051, 0.0044674025848507881, 0.0014651537640020251, 0.0051179765723645687, 0.0023977078963071108, 0.0018164912471547723, 0.003341220086440444, 0.0015426225727424026, 0.0019601674284785986, 0.0030187924858182669, 0.003245173953473568, 0.0028258475940674543, 0.0032957897055894136, } };
const TfLiteAffineQuantization quant13 = { (TfLiteFloatArray*)&quant13_scale, (TfLiteIntArray*)&g0::quant6_zero, 0 };
const MODEL_SECTION(EI_MODEL_SECTION) ALIGN(16) int32_t tensor_data14[8] = { -11311, -37077, -750, 8822, -10337, -4393, -25296, -2441, };
const TfArray<8, float> quant14_scale = { 8, { 0.00012196170428069308, 5.7239063607994467e-05, 3.6695259041152894e-05, 8.8822314864955842e-05, 9.4979717687238008e-05, 6.0628437495324761e-05, 4.3476320570334792e-05, 9.0264016762375832e-05, } };
const TfLiteAffineQuantization quant14 = { (TfLiteFloatArray*)&quant14_scale, (TfLiteIntArray*)&g0::quant8_zero, 0 };
const MODEL_SECTION(EI_MODEL_SECTION) ALIGN(16) int8_t tensor_data15[8*1*1*48] = { 
  /* [0][0][][] */ 35,48,-73,52,0,18,-80,-28,7,-4,7,-29,-12,10,44,-7,30,-19,35,-13,8,-41,41,-4,10,-18,-13,10,0,10,-12,1,28,10,18,21,127,58,41,-34,-3,-21,-17,-30,70,23,14,-40, 
  /* [1][0][][] */ 96,73,2,-15,25,56,0,-30,36,46,-29,-76,99,1,0,69,-13,56,59,-111,116,11,26,55,52,50,23,30,44,-71,61,63,54,127,31,110,92,5,14,55,114,-8,44,46,43,62,110,-74, 
  /* [2][0][][] */ -36,13,116,127,-60,60,22,45,46,58,41,-64,-18,126,31,63,-50,-126,101,28,-25,55,-78,-111,-9,-74,13,-18,-115,7,17,-19,-46,-54,-84,-27,1,47,-105,3,2,-82,-30,43,94,-67,-19,30, 
  /* [3][0][][] */ -16,69,-95,-6,16,-83,20,80,127,-80,-42,-6,-24,-12,3,60,-4,8,-8,-32,-27,28,-74,49,-30,-13,33,-13,73,-36,43,-65,43,-19,-30,-66,-123,-25,-91,7,-6,-70,14,-17,-66,13,-31,-48, 
  /* [4][0][][] */ 15,-51,27,4,-69,82,20,64,-102,-26,24,40,70,-60,-47,-61,108,38,30,2,14,-110,13,20,-39,-6,-30,-127,-62,-31,80,51,64,-8,85,89,35,65,66,7,11,51,-59,-43,59,40,82,-42, 
  /* [5][0][][] */ 36,75,28,61,36,25,-59,-94,-76,9,-8,1,23,59,23,-35,62,97,-13,9,-3,-50,-40,-60,-79,-74,-38,57,12,29,-26,19,4,-45,68,5,-18,127,-39,-69,-2,-41,15,-9,16,0,-24,88, 
  /* [6][0][][] */ 127,77,14,111,-78,18,-3,58,6,-111,67,83,64,-21,-41,-55,44,54,-53,3,102,-1,-34,-27,7,87,-21,-11,20,-57,55,45,-3,-30,-6,89,110,-73,9,45,-58,61,-85,34,71,115,125,-38, 
  /* [7][0][][] */ 12,5,127,54,-54,64,-83,16,-16,104,13,-16,42,43,12,-12,-55,-18,-63,14,-18,4,-5,-20,0,51,60,-33,16,23,17,-16,-80,1,62,26,99,-6,43,-27,-41,-40,-62,-45,-7,-25,-7,9, 
};
const TfArray<8, float> quant15_scale = { 8, { 0.0051833721809089184, 0.002432660199701786, 0.0015595485456287861, 0.0037749481853097677, 0.0040366379544138908, 0.0025767085608094931, 0.0018477436387911439, 0.003836220595985651, } };
const TfLiteAffineQuantization quant15 = { (TfLiteFloatArray*)&quant15_scale, (TfLiteIntArray*)&g0::quant8_zero, 0 };
const MODEL_SECTION(EI_MODEL_SECTION) ALIGN(16) int32_t tensor_data16[48] = { 16069, -10969, -3648, 955, -2120, 9727, 2977, -3114, -2687, 5037, -2317, -1459, -12426, -9589, 7605, 91, -9555, 44849, -2569, -9079, 10051, -54, -1732, -908, -4547, 3310, -406, 8608, -909, -3102, 2062, 17755, 11826, -3178, 4930, 15043, -2466, 19303, -378, -2418, 231, -5469, -534, 2331, 4210, 15318, 2902, -10736, };
const TfArray<48, float> quant16_scale = { 48, { 8.4472230810206383e-05, 0.00011450149031588808, 0.00028644633130170405, 0.00021301435481291264, 0.00019347516354173422, 0.00015921863086987287, 0.00014124609879218042, 0.0003674807958304882, 5.7114288210868835e-05, 0.00025233021005988121, 0.00025916134472936392, 0.00013114391185808927, 7.7597593190148473e-05, 0.00010529572318773717, 9.2694535851478577e-05, 0.00010378567822044715, 6.5278902184218168e-05, 4.8950736527331173e-05, 0.00029896915657445788, 5.4716994782211259e-05, 0.0001245125022251159, 0.00053665298037230968, 0.00022030985564924777, 0.00020910773309879005, 0.00023843593953642994, 0.00030582101317122579, 0.00030309884459711611, 0.0002564826572779566, 0.00030521792359650135, 0.00027093515382148325, 0.00010292930528521538, 0.00010613290942274034, 8.6214298789855093e-05, 0.00028976993053220212, 0.00014507987361866981, 0.00015437182446476072, 0.00071449583629146218, 0.00016300486458931118, 0.00015973034896887839, 0.00032221266883425415, 0.00015226878167595714, 0.00021124191698618233, 0.00023653049720451236, 0.00014363869559019804, 0.0002605108602438122, 8.4039151261094958e-05, 0.00017770775593817234, 0.00012590370897669345, } };
const TfLiteAffineQuantization quant16 = { (TfLiteFloatArray*)&quant16_scale, (TfLiteIntArray*)&g0::quant6_zero, 0 };
const MODEL_SECTION(EI_MODEL_SECTION) ALIGN(16) int8_t tensor_data17[1*3*3*48] = { 
  /* [0][0][][] */ -44,24,60,23,127,-71,27,7,57,18,-23,-14,22,-23,-87,-11,23,-96,-23,40,-9,-7,-35,4,3,2,52,-90,-6,127,-37,-74,-3,95,101,-107,17,-80,-106,-24,-24,-25,-9,-56,-17,12,-127,61, -124,127,24,36,-14,-74,127,-15,127,13,-33,127,56,127,25,10,82,-127,-7,48,-41,-32,98,-127,22,39,-127,-18,-14,-63,80,-69,-127,-67,5,-29,-62,-66,-127,31,-66,-29,11,-127,20,-78,63,109, -30,12,8,15,43,9,4,-6,65,21,-86,-54,-31,-21,-103,53,54,-88,-15,53,-11,-12,-26,11,28,12,8,-127,-18,43,-78,-127,41,12,105,-37,20,-30,-93,9,6,11,2,-26,-25,-63,-102,20, 
  /* [0][1][][] */ -111,117,15,-53,-2,-90,5,14,41,5,109,29,117,59,-75,32,127,-78,7,81,-16,-28,-78,-22,-127,-34,-50,-19,3,18,96,-32,-39,127,-117,-127,43,-83,68,81,-117,14,-82,23,-17,-78,72,-14, 16,92,127,127,-39,82,-117,127,102,-127,20,42,127,81,127,-76,-36,-121,127,-50,-127,127,127,-16,108,76,44,74,127,-45,127,50,-81,-73,-45,-110,127,127,73,72,-65,127,-34,69,127,96,35,-66, -116,87,3,-32,-64,-127,10,-8,-24,-6,87,7,68,69,-82,127,127,-118,8,127,34,-51,-72,-9,49,-41,-28,-7,4,25,94,-49,17,3,-127,-33,32,-86,72,-127,-99,29,127,61,-41,-87,38,127, 
  /* [0][2][][] */ -13,-35,46,-4,67,-45,17,20,76,17,127,44,63,1,-74,62,87,-72,-50,29,-6,16,-56,48,5,-20,-54,-29,-1,66,0,-16,-20,20,-57,28,-35,-57,68,-27,33,4,6,-8,-27,-31,70,-51, -127,89,70,29,-62,-116,54,-58,80,12,92,-29,-23,38,-88,60,103,-64,-14,112,-49,-5,85,121,26,-127,90,-12,7,-25,-15,-94,-6,-45,-74,-109,-73,-115,28,39,127,42,-33,28,-35,-64,-61,14, 72,-28,15,16,2,-23,14,12,58,18,70,-6,76,8,-107,65,89,-97,-45,37,-25,5,-51,56,22,-14,-28,-65,-6,10,-74,-39,20,6,-47,78,-31,-46,68,12,28,10,42,21,-34,-127,77,55, 
};
const TfArray<48, float> quant17_scale = { 48, { 0.0035900697112083435, 0.0048663131892681122, 0.012173968367278576, 0.0090531101450324059, 0.0082226945087313652, 0.0067667919211089611, 0.0060029588639736176, 0.015617933124303818, 0.0024273572489619255, 0.01072403322905302, 0.011014357209205627, 0.0055736158974468708, 0.0032978977542370558, 0.0044750683009624481, 0.0039395177736878395, 0.0044108913280069828, 0.002774353139102459, 0.0020804062951356173, 0.01270618848502636, 0.0023254721891134977, 0.0052917813882231712, 0.022807750850915909, 0.0093631688505411148, 0.0088870786130428314, 0.010133527219295502, 0.012997392565011978, 0.01288170088082552, 0.010900513269007206, 0.012971761636435986, 0.011514743790030479, 0.0043744952417910099, 0.0045106485486030579, 0.0036641075275838375, 0.012315222062170506, 0.0061658942140638828, 0.0065608024597167969, 0.030366072431206703, 0.0069277067668735981, 0.0067885397002100945, 0.013694037683308125, 0.0064714229665696621, 0.0089777810499072075, 0.010052545927464962, 0.006104644387960434, 0.011071710847318172, 0.0035716637503355742, 0.0075525795109570026, 0.0053509077988564968, } };
const TfLiteAffineQuantization quant17 = { (TfLiteFloatArray*)&quant17_scale, (TfLiteIntArray*)&g0::quant6_zero, 3 };
const MODEL_SECTION(EI_MODEL_SECTION) ALIGN(16) int32_t tensor_data18[48] = { 1381, 2436, -4478, 3040, 1401, 4067, 1830, 4856, 3681, 2752, -1603, -191, 762, 1612, 1786, -323, -29, 6433, 2878, 85, 1496, 4487, 1326, 4150, 3554, 5029, 442, 8117, 382, 3060, -2008, 5321, 307, 4045, 2849, 3541, 55588, 7203, 1889, 7993, 579, 185, 3663, 652, 2905, 399, 1667, 1259, };
const TfArray<48, float> quant18_scale = { 48, { 0.00024527695495635271, 0.00022506485402118415, 0.00015855504898354411, 0.0002262010530102998, 0.00023052150208968669, 0.00016264669829979539, 0.00028218768420629203, 0.00017740757903084159, 0.00020430119184311479, 0.00022549841378349811, 0.0002584848552942276, 0.00035597849637269974, 0.00035134414792992175, 0.00038666863110847771, 0.00035218475386500359, 0.00027707158005796373, 0.00022546848049387336, 0.00013574653712566942, 0.00029769621323794127, 0.00020547606982290745, 0.00033752789022400975, 0.00016325610340572894, 0.00040774958324618638, 0.00018664459639694542, 0.00022968265693634748, 0.00016051143757067621, 0.00028807192575186491, 0.00012593306018970907, 0.00027293534367345273, 0.00024885107995942235, 0.0002730374108068645, 0.00016161690291482955, 0.00061773246852681041, 0.00018657835607882589, 0.0002437229995848611, 0.0002262206980958581, 2.832604332070332e-05, 0.00012752100883517414, 0.00029997873934917152, 0.0001192048002849333, 0.0006038147839717567, 0.00046899894368834794, 0.00018517185526434332, 0.00038689072243869305, 0.00023562650312669575, 0.00054078706307336688, 0.00030079911812208593, 0.00028431168175302446, } };
const TfLiteAffineQuantization quant18 = { (TfLiteFloatArray*)&quant18_scale, (TfLiteIntArray*)&g0::quant6_zero, 0 };
const MODEL_SECTION(EI_MODEL_SECTION) ALIGN(16) int8_t tensor_data19[48*1*1*8] = { 
  /* [0][0][][] */ -69,-127,-45,54,-40,-32,73,-59, 
  /* [1][0][][] */ -24,127,52,-96,18,-87,-80,125, 
  /* [2][0][][] */ -121,-84,30,25,127,-20,41,-33, 
  /* [3][0][][] */ -18,-63,-127,-105,31,-34,-63,88, 
  /* [4][0][][] */ -15,-66,27,0,127,-73,27,-31, 
  /* [5][0][][] */ -10,87,82,-104,81,58,-61,127, 
  /* [6][0][][] */ -86,79,36,90,-17,-16,52,-127, 
  /* [7][0][][] */ 43,-17,33,42,40,-127,6,64, 
  /* [8][0][][] */ -25,80,-6,-48,27,127,116,-86, 
  /* [9][0][][] */ 82,98,-1,-83,-92,-82,-34,127, 
  /* [10][0][][] */ 46,-23,38,-23,-44,56,-127,-70, 
  /* [11][0][][] */ -65,-27,-103,-61,127,2,69,54, 
  /* [12][0][][] */ 84,40,-12,-30,127,122,-9,4, 
  /* [13][0][][] */ -122,-127,-11,44,-70,41,49,-3, 
  /* [14][0][][] */ -32,103,-50,127,-59,69,2,52, 
  /* [15][0][][] */ -52,-54,-52,-127,125,116,-94,69, 
  /* [16][0][][] */ 58,-99,-7,62,56,-42,53,-127, 
  /* [17][0][][] */ -93,-66,-127,106,20,94,78,-123, 
  /* [18][0][][] */ 84,-14,127,3,-19,-103,-72,-56, 
  /* [19][0][][] */ 3,79,16,43,119,-127,-39,-37, 
  /* [20][0][][] */ -44,-11,-127,-22,22,-17,14,-5, 
  /* [21][0][][] */ -71,-18,11,81,-31,-127,100,-30, 
  /* [22][0][][] */ 73,-3,-127,-79,-54,-11,26,60, 
  /* [23][0][][] */ 13,63,127,10,-77,64,-25,-106, 
  /* [24][0][][] */ -87,91,87,63,63,127,11,-40, 
  /* [25][0][][] */ -27,-127,-117,70,-57,4,84,-39, 
  /* [26][0][][] */ 73,127,-93,-80,-115,-11,-54,-1, 
  /* [27][0][][] */ 47,22,-41,-1,-127,28,-35,1, 
  /* [28][0][][] */ -36,65,72,-112,60,127,-102,-77, 
  /* [29][0][][] */ 49,-26,15,-86,-127,-33,58,-49, 
  /* [30][0][][] */ -80,-16,25,127,48,2,-19,-13, 
  /* [31][0][][] */ 19,-82,-10,-78,-127,57,-51,-113, 
  /* [32][0][][] */ -127,7,35,-20,-4,-34,11,20, 
  /* [33][0][][] */ 6,-64,-82,-127,-27,34,-76,49, 
  /* [34][0][][] */ 55,70,127,6,-127,-74,76,-57, 
  /* [35][0][][] */ 127,44,19,11,-121,-40,-125,-59, 
  /* [36][0][][] */ 127,-21,81,-40,12,-15,89,70, 
  /* [37][0][][] */ 126,127,7,-10,74,106,-127,30, 
  /* [38][0][][] */ 1,75,43,127,20,23,47,-76, 
  /* [39][0][][] */ 57,43,124,-27,127,-108,-18,4, 
  /* [40][0][][] */ 22,25,43,5,-83,-127,40,5, 
  /* [41][0][][] */ 47,-52,21,127,-41,77,24,75, 
  /* [42][0][][] */ -47,-127,118,-97,100,-17,108,67, 
  /* [43][0][][] */ 7,-42,-94,-36,116,17,-44,127, 
  /* [44][0][][] */ 76,-2,127,-5,-2,35,-54,17, 
  /* [45][0][][] */ -4,20,-8,-4,-58,-127,-7,45, 
  /* [46][0][][] */ -26,43,44,44,10,-44,37,-127, 
  /* [47][0][][] */ -25,-48,36,50,29,-127,62,107, 
};
const TfArray<48, float> quant19_scale = { 48, { 0.0027091891970485449, 0.0024859376717358828, 0.0017513084458187222, 0.00249848747625947, 0.0025462086778134108, 0.0017965023871511221, 0.0031168838031589985, 0.0019595427438616753, 0.0022565941326320171, 0.0024907265324145555, 0.0028550759889185429, 0.0039319349452853203, 0.0038807466626167297, 0.004270920529961586, 0.0038900314830243587, 0.0030603744089603424, 0.0024903959129005671, 0.0014993785880506039, 0.0032881821971386671, 0.0022695711813867092, 0.0037281401455402374, 0.0018032336374744773, 0.0045037688687443733, 0.0020615695975720882, 0.0025369434151798487, 0.0017729175742715597, 0.0031818777788430452, 0.0013909846311435103, 0.0030146879144012928, 0.0027486667968332767, 0.0030158152803778648, 0.0017851279117166996, 0.0068231197074055672, 0.0020608378108590841, 0.0026920249219983816, 0.0024987044744193554, 0.00031287327874451876, 0.0014085241127759218, 0.0033133937977254391, 0.0013166681164875627, 0.0066693932749330997, 0.0051802941597998142, 0.0020453024189919233, 0.0042733736336231232, 0.0026025956030935049, 0.0059732249937951565, 0.0033224551007151604, 0.0031403442844748497, } };
const TfLiteAffineQuantization quant19 = { (TfLiteFloatArray*)&quant19_scale, (TfLiteIntArray*)&g0::quant6_zero, 0 };
const MODEL_SECTION(EI_MODEL_SECTION) ALIGN(16) int32_t tensor_data20[8] = { 586, -3748, 12891, -9495, -12926, -7650, -5883, -4925, };
const TfArray<8, float> quant20_scale = { 8, { 8.1602564023341984e-05, 0.00010986160486936569, 0.00010831281542778015, 9.8999153124168515e-05, 8.7640641140751541e-05, 9.67300875345245e-05, 0.00011923954298254102, 0.00019830303790513426, } };
const TfLiteAffineQuantization quant20 = { (TfLiteFloatArray*)&quant20_scale, (TfLiteIntArray*)&g0::quant8_zero, 0 };
const MODEL_SECTION(EI_MODEL_SECTION) ALIGN(16) int8_t tensor_data21[8*1*1*48] = { 
  /* [0][0][][] */ -10,-19,54,-59,47,92,74,108,96,-51,-26,55,-51,-43,13,-1,41,33,9,-49,-15,29,-85,-31,20,16,28,-73,-42,14,31,32,29,49,44,16,106,-52,-43,1,-24,-66,-19,10,-81,-88,-127,66, 
  /* [1][0][][] */ 4,12,-54,42,-3,5,-35,-14,-55,16,16,95,-35,2,-38,127,35,68,18,-44,-39,-11,-81,32,23,3,-21,-79,39,-5,-62,-78,54,-17,-29,-70,24,50,67,-57,20,84,64,-35,-3,-17,-45,-35, 
  /* [2][0][][] */ 8,-78,-19,10,-36,17,5,8,101,19,-7,-4,-7,-75,48,-1,-2,-72,-7,-1,-104,68,4,34,19,49,-24,-26,0,-35,33,-59,-120,40,-40,53,-62,52,-21,-32,127,-12,4,45,40,51,-77,-26, 
  /* [3][0][][] */ -21,-98,79,63,33,-93,-17,-20,-120,127,63,-61,42,-3,-23,24,68,41,-34,45,75,64,31,-61,0,77,40,23,-21,-57,10,28,-11,0,43,6,-21,-85,-17,55,-30,-17,25,-67,-87,1,5,13, 
  /* [4][0][][] */ -21,53,-13,107,45,18,4,-1,-63,103,55,68,5,18,93,27,22,-126,-26,1,98,-27,-98,45,72,-41,36,27,72,26,-9,-52,-46,127,-7,35,86,-44,21,47,-37,37,-11,-44,6,-74,-38,37, 
  /* [5][0][][] */ -29,-5,-18,-76,-127,21,88,37,1,34,-25,-12,-95,3,41,-17,-97,15,-36,-67,10,113,-7,12,100,40,-4,5,-39,-10,97,-53,-34,91,64,84,-23,56,59,14,-7,-18,-30,28,-36,30,14,36, 
  /* [6][0][][] */ 8,-36,-14,26,-59,-49,1,10,14,-16,47,7,-56,-31,37,66,2,-77,11,-48,79,-24,1,-46,1,1,20,34,37,10,-2,127,28,-22,-24,29,4,-9,12,1,11,46,-30,-67,10,-27,-30,37, 
  /* [7][0][][] */ -16,-6,-44,-5,1,-17,17,14,43,-3,16,-9,-11,12,-1,5,26,-2,-13,-6,-46,0,10,-18,-5,0,-59,-9,-20,-16,17,34,28,-17,18,9,-26,127,5,-33,-34,-11,-41,-23,12,61,-55,-14, 
};
const TfArray<8, float> quant21_scale = { 8, { 0.0034681088291108608, 0.0046691182069480419, 0.0046032946556806564, 0.0042074639350175858, 0.0037247270811349154, 0.0041110287420451641, 0.0050676804967224598, 0.0084278788417577744, } };
const TfLiteAffineQuantization quant21 = { (TfLiteFloatArray*)&quant21_scale, (TfLiteIntArray*)&g0::quant8_zero, 0 };
const MODEL_SECTION(EI_MODEL_SECTION) ALIGN(16) int32_t tensor_data22[48] = { -146, 31979, 23861, -2307, -1018, -16093, 11690, 19657, -4833, 345, -63, 16265, 23660, -9394, -11188, 1425, 3256, 42355, -379, -111, 48144, 10521, -9597, -4594, 10928, 11873, -769, -52, -3991, -237, 30689, -2631, -5276, 5112, 11569, 16253, -1706, 51030, 1200, 3154, 22985, 548, -2223, 13784, -785, 1081, -14272, 14423, };
const TfArray<48, float> quant22_scale = { 48, { 0.00029004094540141523, 8.9438915892969817e-05, 9.8840246209874749e-05, 7.1267932071350515e-05, 5.6571734603494406e-05, 0.00010268212645314634, 0.00010728534107329324, 7.6821255788672715e-05, 0.00043843590538017452, 6.4112908148672432e-05, 0.00011073138739448041, 7.2188297053799033e-05, 8.9481138275004923e-05, 0.00022807570348959416, 8.2460290286689997e-05, 5.8818714023800567e-05, 0.00011254313722020015, 0.00011431006714701653, 0.00028060347540304065, 5.4206553613767028e-05, 5.1673956477316096e-05, 0.0001096879641409032, 8.9459070295561105e-05, 0.00013707089237868786, 0.00012742573744617403, 0.00010924909292953089, 0.00019448809325695038, 0.00017289018433075398, 6.4706138800829649e-05, 0.00019142095698043704, 7.563475810457021e-05, 9.37609001994133e-05, 6.7272325395606458e-05, 0.00014449996524490416, 8.4763785707764328e-05, 7.4760784627869725e-05, 7.2156079113483429e-05, 8.1472346209920943e-05, 8.2786544226109982e-05, 9.3325732450466603e-05, 0.00010466792446095496, 0.00024889773339964449, 5.9622900153044611e-05, 8.1008038250729442e-05, 0.00010225109872408211, 0.00012201636127429083, 0.00018995717982761562, 9.882656013360247e-05, } };
const TfLiteAffineQuantization quant22 = { (TfLiteFloatArray*)&quant22_scale, (TfLiteIntArray*)&g0::quant6_zero, 0 };
const MODEL_SECTION(EI_MODEL_SECTION) ALIGN(16) int8_t tensor_data23[1*3*3*48] = { 
  /* [0][0][][] */ 55,-71,-54,38,20,28,-26,-106,-6,38,69,-78,-73,26,85,71,31,-127,73,48,-127,-59,43,113,-36,1,46,74,96,69,-53,79,66,-60,-100,-37,104,-91,94,-34,-124,127,72,-81,127,98,85,-86, 38,-127,-60,62,101,51,-27,-46,28,52,88,-127,-86,41,127,86,33,-123,33,96,-113,-69,78,127,-66,-19,77,81,127,127,-67,100,79,-29,-110,-127,101,-127,54,-11,-78,110,58,-124,116,127,108,-121, 4,-97,-5,2,31,3,6,-8,-5,20,34,-75,-38,13,70,-1,-2,-36,16,0,-40,-45,2,82,0,15,-11,2,32,83,-42,37,18,-41,-67,-82,37,-65,5,-24,-34,-6,93,-30,86,47,43,-31, 
  /* [0][1][][] */ 23,-51,-83,100,123,60,-79,-108,85,127,127,-87,-119,78,67,124,127,-117,30,114,-80,-80,80,61,-75,-117,127,127,69,32,-94,127,127,-102,-77,-65,91,-105,127,52,-127,-7,51,-127,124,101,61,-126, 7,-114,-127,127,127,127,-127,-127,127,102,95,-100,-127,127,48,127,89,-115,-1,127,-126,-127,127,72,-127,-127,118,93,93,71,-127,125,111,-127,-62,-90,127,-126,125,127,-91,55,127,-96,125,83,79,-127, -39,-69,-42,66,61,35,-60,-76,17,43,56,-25,-97,43,72,16,32,-32,-9,73,-42,-96,57,45,-61,-9,-1,20,13,-53,-59,21,43,-67,-127,-93,88,-32,-4,85,-23,8,87,-52,37,-9,67,-89, 
  /* [0][2][][] */ -57,-54,-27,67,23,102,-50,-38,-74,40,12,-113,-78,-1,104,40,39,-68,-92,42,-21,-34,59,15,-81,-53,49,4,63,59,-28,15,23,-13,-46,-34,64,-76,47,36,-5,26,113,-61,31,23,-98,1, -127,-82,-52,110,40,107,-51,-20,-90,52,-17,-118,-119,10,51,79,61,-72,-127,37,3,-86,63,6,-52,-72,0,43,78,3,-43,48,58,-3,19,-94,22,-74,12,65,9,112,110,-71,37,-36,-127,-16, -86,-40,-49,73,53,51,11,2,-95,25,4,-66,-27,3,69,7,23,-43,-87,48,12,-27,31,-10,-82,-9,7,12,59,1,-14,17,18,-38,-14,-26,0,-29,-29,42,11,-36,32,2,35,14,-26,8, 
};
const TfArray<48, float> quant23_scale = { 48, { 0.012326739728450775, 0.0038011539727449417, 0.0042007104493677616, 0.003028887091204524, 0.0024042986333370209, 0.0043639903888106346, 0.0045596268028020859, 0.0032649033237248659, 0.018633525818586349, 0.002724798396229744, 0.0047060837969183922, 0.0030680026393383741, 0.0038029481656849384, 0.0096932174637913704, 0.0035045621916651726, 0.0024997952859848738, 0.0047830832190811634, 0.0048581776209175587, 0.011925647035241127, 0.0023037784267216921, 0.0021961431484669447, 0.0046617384068667889, 0.0038020103238523006, 0.0058255130425095558, 0.0054155937395989895, 0.0046430863440036774, 0.0082657439634203911, 0.0073478328995406628, 0.0027500106953084469, 0.008135390467941761, 0.0032144770957529545, 0.0039848382584750652, 0.0028590736910700798, 0.0061412481591105461, 0.0036024607252329588, 0.003177333390340209, 0.0030666333623230457, 0.003462574677541852, 0.0035184281878173351, 0.0039663435891270638, 0.0044483868405222893, 0.010578153654932976, 0.0025339731946587563, 0.0034428415820002556, 0.0043456717394292355, 0.0051856953650712967, 0.0080731799826025963, 0.0042001288384199142, } };
const TfLiteAffineQuantization quant23 = { (TfLiteFloatArray*)&quant23_scale, (TfLiteIntArray*)&g0::quant6_zero, 3 };
const MODEL_SECTION(EI_MODEL_SECTION) ALIGN(16) int32_t tensor_data24[48] = { -2628, 7252, 3451, -527, -279, 6653, 2087, 1415, 10862, 1301, -2423, 618, 3536, 600, -289, 342, -3197, 14721, -1643, -757, 1534, 1275, 563, -1147, -168, 2542, -2045, -1444, -654, -1990, 8832, 1985, 471, 627, -79, 2058, 1023, 5795, 916, 394, 6223, -1665, 1141, 937, -1491, -1506, 9819, 3527, };
const TfArray<48, float> quant24_scale = { 48, { 0.00022294549853540957, 0.00013013147690799087, 0.00024264745297841728, 0.000339164660545066, 0.00047353433910757303, 0.00013432152627501637, 0.00033980168518610299, 0.00026485993294045329, 9.1764239186886698e-05, 0.00038482446689158678, 0.00021210203703958541, 0.00045719806803390384, 0.00019762320152949542, 0.00042246267548762262, 0.0003856014518532902, 0.00026295080897398293, 0.00018757695215754211, 7.1784925239626318e-05, 0.00022837804863229394, 0.00028185587143525481, 0.00031621777452528477, 0.00026414610329084098, 0.00035851084976457059, 0.00024244074302259833, 0.00047598322271369398, 0.00023258721921592951, 0.00025154324248433113, 0.00028722206479869783, 0.00027565265190787613, 0.00023430248256772757, 0.00011462803377071396, 0.00030495735700242221, 0.00053751870291307569, 0.0003943334158975631, 0.00042192591354250908, 0.00022939890914130956, 0.0002922245766967535, 0.00014833900786470622, 0.0003410586214158684, 0.00024184391077142209, 0.00015337581862695515, 0.00016461384075228125, 0.00024506935733370483, 0.00035512368776835501, 0.000378087890567258, 0.00033310253638774157, 0.00010448827379150316, 0.00017229170771315694, } };
const TfLiteAffineQuantization quant24 = { (TfLiteFloatArray*)&quant24_scale, (TfLiteIntArray*)&g0::quant6_zero, 0 };
const MODEL_SECTION(EI_MODEL_SECTION) ALIGN(16) int8_t tensor_data25[48*1*1*8] = { 
  /* [0][0][][] */ 69,43,-74,42,-42,77,-127,40, 
  /* [1][0][][] */ 22,-30,-127,21,2,4,125,-101, 
  /* [2][0][][] */ -120,-44,-63,-63,-20,52,-127,-2, 
  /* [3][0][][] */ -39,-38,6,16,-20,-127,-73,-42, 
  /* [4][0][][] */ -32,-127,-30,47,55,9,-27,-60, 
  /* [5][0][][] */ 79,-10,98,19,-127,77,-84,-95, 
  /* [6][0][][] */ 26,-127,-55,-42,-5,61,-35,-59, 
  /* [7][0][][] */ -21,-84,-43,-35,47,-127,4,15, 
  /* [8][0][][] */ 47,102,44,56,59,-41,6,127, 
  /* [9][0][][] */ -25,-69,-51,15,36,-29,127,-18, 
  /* [10][0][][] */ -8,-12,-92,45,12,-11,80,-127, 
  /* [11][0][][] */ -6,-58,-23,11,-127,-7,1,35, 
  /* [12][0][][] */ 87,86,-8,19,-32,127,49,-2, 
  /* [13][0][][] */ -29,-9,42,-24,37,-127,-7,72, 
  /* [14][0][][] */ -126,-41,29,12,13,57,-113,-127, 
  /* [15][0][][] */ 103,110,32,-17,-127,73,102,-38, 
  /* [16][0][][] */ 25,-72,-2,109,2,-87,10,-127, 
  /* [17][0][][] */ -94,127,23,-8,-72,-46,-69,-92, 
  /* [18][0][][] */ 122,104,-88,-73,127,92,-88,-91, 
  /* [19][0][][] */ -35,51,-11,42,-127,-21,-61,-120, 
  /* [20][0][][] */ -127,14,15,12,41,42,95,68, 
  /* [21][0][][] */ -20,-3,46,13,-110,-127,-106,15, 
  /* [22][0][][] */ -12,-46,-47,-4,-127,-7,-2,66, 
  /* [23][0][][] */ 64,-3,-20,0,127,48,-81,76, 
  /* [24][0][][] */ 127,27,-48,30,-78,17,5,10, 
  /* [25][0][][] */ -12,-75,19,81,-58,-127,46,84, 
  /* [26][0][][] */ 32,127,24,72,106,-55,53,-54, 
  /* [27][0][][] */ -114,83,76,-7,127,-83,1,63, 
  /* [28][0][][] */ -79,-68,-50,-39,64,-127,8,-19, 
  /* [29][0][][] */ -53,-9,50,26,127,-59,-54,50, 
  /* [30][0][][] */ 111,33,-127,-100,-50,-91,-59,-49, 
  /* [31][0][][] */ 43,5,31,77,-127,9,34,1, 
  /* [32][0][][] */ 127,15,33,39,-37,-47,65,60, 
  /* [33][0][][] */ 90,15,-30,10,-127,-76,35,43, 
  /* [34][0][][] */ 27,-26,-46,15,-66,127,14,-79, 
  /* [35][0][][] */ 127,35,-62,-69,57,-112,64,125, 
  /* [36][0][][] */ -8,-38,58,-69,-34,-14,72,-127, 
  /* [37][0][][] */ 57,-77,52,49,95,-25,48,-127, 
  /* [38][0][][] */ 53,127,0,-20,-39,34,35,62, 
  /* [39][0][][] */ 32,-12,-126,127,-53,-86,-73,105, 
  /* [40][0][][] */ -4,-45,12,-38,17,-127,28,47, 
  /* [41][0][][] */ -42,40,-127,-79,92,123,49,-92, 
  /* [42][0][][] */ 5,-74,-92,-2,112,127,59,91, 
  /* [43][0][][] */ 5,69,-23,11,-127,-38,55,-49, 
  /* [44][0][][] */ -127,-38,-6,-28,55,49,-83,-86, 
  /* [45][0][][] */ -48,47,-49,24,30,-16,-78,127, 
  /* [46][0][][] */ -46,23,127,22,-43,-99,-35,13, 
  /* [47][0][][] */ -107,-113,-18,-46,127,127,-67,126, 
};
const TfArray<48, float> quant25_scale = { 48, { 0.0020694509148597717, 0.0012079216539859772, 0.0022523307707160711, 0.0031482342164963484, 0.0043954961001873016, 0.0012468150816857815, 0.0031541471835225821, 0.0024585139472037554, 0.0008517848327755928, 0.0035720628220587969, 0.0019687984604388475, 0.0042438576929271221, 0.0018344013951718807, 0.0039214328862726688, 0.0035792752169072628, 0.0024407929740846157, 0.0017411488806828856, 0.00066633045207709074, 0.0021198776084929705, 0.0026162758003920317, 0.0029352337587624788, 0.0024518880527466536, 0.0033278116025030613, 0.0022504120133817196, 0.0044182273559272289, 0.002158948453143239, 0.002334904158487916, 0.0026660864241421223, 0.0025586953852325678, 0.0021748701110482216, 0.0010640138061717153, 0.0028307109605520964, 0.0049894191324710846, 0.0036603279877454042, 0.003916450310498476, 0.0021293535828590393, 0.0027125214692205191, 0.0013769298093393445, 0.0031658145599067211, 0.0022448720410466194, 0.0014236831339076161, 0.0015279978979378939, 0.0022748115006834269, 0.0032963708508759737, 0.0035095319617539644, 0.0030919634737074375, 0.00096989335725083947, 0.0015992663102224469, } };
const TfLiteAffineQuantization quant25 = { (TfLiteFloatArray*)&quant25_scale, (TfLiteIntArray*)&g0::quant6_zero, 0 };
const MODEL_SECTION(EI_MODEL_SECTION) ALIGN(16) int32_t tensor_data26[8] = { 8842, 13647, 4913, 9025, -279, -13734, 7222, -9703, };
const TfArray<8, float> quant26_scale = { 8, { 0.00010986177949234843, 8.9155153546016663e-05, 0.00013018057506997138, 0.00019466369121801108, 0.00017383680096827447, 0.00011386330152163282, 4.9095255235442892e-05, 0.00011053730122512206, } };
const TfLiteAffineQuantization quant26 = { (TfLiteFloatArray*)&quant26_scale, (TfLiteIntArray*)&g0::quant8_zero, 0 };
const MODEL_SECTION(EI_MODEL_SECTION) ALIGN(16) int8_t tensor_data27[8*1*1*48] = { 
  /* [0][0][][] */ 42,-36,102,53,9,-25,30,8,2,61,-25,8,-61,-77,20,6,-91,61,-39,78,-36,55,4,-11,15,-42,63,-22,-26,34,-31,99,-45,-17,-17,-66,-55,-54,-19,-20,-27,73,-127,8,54,40,30,48, 
  /* [1][0][][] */ -58,-33,71,-24,-46,39,-40,-47,72,-16,19,-46,-27,37,-9,37,5,30,3,-38,-58,-38,-95,-2,51,-35,-46,-23,19,-78,-11,-127,18,-83,-111,-76,-37,-112,-22,12,43,-19,100,-110,-31,-10,-32,20, 
  /* [2][0][][] */ -49,93,-23,25,8,4,37,-39,75,-47,89,80,81,38,11,-43,107,10,-1,12,-22,9,-3,123,-127,-40,-16,-24,-8,79,-24,-83,-38,-17,-16,-61,-29,-3,-25,-21,86,-84,19,7,21,-109,15,-9, 
  /* [3][0][][] */ 42,-7,-64,20,71,-87,-8,-107,-42,-6,-81,-71,-29,109,-11,24,-46,-23,-65,-43,31,94,-28,-54,90,35,51,-80,11,-93,51,-78,48,44,127,-80,-70,6,-27,32,29,97,-90,23,1,27,-2,21, 
  /* [4][0][][] */ -53,20,-42,83,98,-22,31,-29,-44,6,-56,43,-21,-23,20,-56,5,53,-25,-30,-45,58,-56,-52,5,-4,24,-37,38,-22,-27,55,-7,79,-53,-68,-42,-45,-36,2,60,-55,127,-6,-3,64,-45,-52, 
  /* [5][0][][] */ 45,18,83,-18,-16,35,32,33,127,-14,82,-10,78,68,18,-68,-12,45,18,-57,-60,-74,17,40,36,-14,14,49,-48,-30,3,-20,-22,45,-48,56,40,-11,-42,-55,-2,60,43,50,-17,-1,60,24, 
  /* [6][0][][] */ -17,-68,-29,5,15,4,14,12,-23,-1,112,56,72,81,-51,48,127,-114,-31,13,-13,-53,-108,51,-79,62,-33,-8,-29,-28,55,-61,105,-8,-49,-12,-32,-17,59,-3,59,-54,-26,-86,-118,54,-37,39, 
  /* [7][0][][] */ -9,-23,-59,-44,8,118,7,-1,4,-42,-102,-96,34,66,-73,-28,-22,43,89,20,-14,-80,43,14,127,-16,-89,85,-42,8,-34,-80,-23,55,54,120,99,-71,-8,-45,-17,0,22,-7,7,-21,11,-21, 
};
const TfArray<8, float> quant27_scale = { 8, { 0.0046691256575286388, 0.0037890940438956022, 0.0055326744914054871, 0.0082732066512107849, 0.0073880637064576149, 0.0048391902819275856, 0.0020865483675152063, 0.0046978350728750229, } };
const TfLiteAffineQuantization quant27 = { (TfLiteFloatArray*)&quant27_scale, (TfLiteIntArray*)&g0::quant8_zero, 0 };
const MODEL_SECTION(EI_MODEL_SECTION) ALIGN(16) int32_t tensor_data28[48] = { -935, -34, 5582, 962, 134, 12022, -481, -2946, -2752, -2366, -9079, 247, -6122, -6197, -914, -1942, -9769, 12062, -5923, -1169, -1378, -513, 1587, 4090, 19269, -2454, -619, -2569, 1144, 3705, -335, -4039, 2538, 565, 730, 7668, -2841, -6279, -2833, -1812, -6478, -4639, 6205, -165, -7107, 8525, 8575, -5110, };
const TfArray<48, float> quant28_scale = { 48, { 0.00030269284616224468, 0.00014395001926459372, 0.00055495725246146321, 0.00011761839414248243, 0.00019354070536792278, 0.0003390077908989042, 0.00027202366618439555, 0.00022000557510182261, 0.00041922304080799222, 0.00020651961676776409, 0.0003508313384372741, 0.00022995036852080375, 9.531481919111684e-05, 0.00014136171375866979, 0.0001627437595743686, 0.00034546043025329709, 0.00022003098274581134, 9.1613794211298227e-05, 7.8550467151217163e-05, 0.00045585283078253269, 0.00023571126803290099, 0.00048512115608900785, 0.00018791385809890926, 0.00080485362559556961, 0.00030036567477509379, 0.00027079854044131935, 0.00026462587993592024, 0.00015058183635119349, 0.00022755951795261353, 0.00020743462664540857, 0.00054454139899462461, 0.00072911358438432217, 0.00042086976463906467, 0.00018415604426991194, 0.00055149896070361137, 0.00018182821804657578, 0.00019277342653367668, 7.0933005190454423e-05, 0.00049481517635285854, 0.00075409311102703214, 0.00016443182539660484, 0.00053388846572488546, 0.00054082693532109261, 0.00018117928993888199, 0.00024466621107421815, 0.00013280085113365203, 0.00013855812721885741, 0.00018606250523589551, } };
const TfLiteAffineQuantization quant28 = { (TfLiteFloatArray*)&quant28_scale, (TfLiteIntArray*)&g0::quant6_zero, 0 };
const MODEL_SECTION(EI_MODEL_SECTION) ALIGN(16) int8_t tensor_data29[1*3*3*48] = { 
  /* [0][0][][] */ -12,-45,21,-43,127,-29,-5,-18,-46,63,9,-1,39,5,127,-29,39,-17,-11,-4,-19,-23,-96,6,-121,44,33,-21,-28,-17,-17,3,-12,26,10,12,84,101,44,5,88,32,-19,15,-62,3,-76,-26, -4,-94,-94,-26,-43,-8,36,16,9,15,51,127,-27,30,-71,127,6,-33,25,-40,-60,-127,-124,52,-127,-70,22,96,-10,17,121,-6,-127,-21,-53,40,127,-65,127,17,71,-2,-27,3,-12,-11,49,-6, 2,-20,-36,127,35,-5,-96,-20,-27,-36,-24,-15,59,4,-78,-41,16,31,-1,-6,2,8,-51,-1,-35,-45,-33,45,-29,26,-97,-36,0,127,16,24,11,107,-101,5,52,0,-13,47,-83,-2,-95,41, 
  /* [0][1][][] */ -122,-59,127,-22,-36,-64,103,17,6,118,28,5,69,27,123,29,52,-127,123,43,72,-2,40,-50,-15,-18,39,-28,10,42,58,51,34,-104,-1,127,18,71,-31,-92,28,111,-22,-45,48,-72,-97,25, 127,-49,-76,-75,-7,-127,127,127,127,44,127,-51,-124,21,-27,-39,127,-64,119,127,127,78,127,-127,-17,-10,100,-11,127,121,-127,127,7,-102,127,-113,-30,127,-80,127,-127,-127,127,-127,127,-127,127,-84, -2,-95,-8,65,-33,-25,-62,3,-21,-127,-27,61,127,25,-71,37,-4,18,5,16,-4,-7,35,-34,12,5,-127,127,-81,2,71,0,-35,-46,-9,-42,63,-24,107,12,47,65,-48,9,76,-29,-90,127, 
  /* [0][2][][] */ 2,123,28,-48,53,21,-27,-27,-39,28,11,-9,59,26,121,9,2,-27,22,-44,-18,14,4,3,-16,-9,31,-1,-86,-127,9,-25,-4,100,-18,37,-28,110,19,101,20,30,-5,37,44,-1,-52,-14, 20,97,-49,-3,23,-14,21,25,26,30,32,-35,20,127,-66,-71,-8,18,127,-69,-39,66,-24,51,68,127,-4,122,-104,-109,-3,-27,75,-38,-83,-5,-33,-4,-23,-117,40,-15,-59,106,74,10,-4,27, 38,127,-24,20,16,27,-63,-15,-29,2,3,-24,95,31,-75,-4,-17,37,-29,-19,-5,9,-19,1,-32,41,-54,72,61,-88,-3,-27,-2,113,0,-30,-22,79,9,-1,-44,5,-1,-1,27,-4,-19,47, 
};
const TfArray<48, float> quant29_scale = { 48, { 0.012864445336163044, 0.0061178756877779961, 0.023585682734847069, 0.004998781718313694, 0.0082254800945520401, 0.014407830312848091, 0.011561005376279354, 0.0093502365052700043, 0.017816979438066483, 0.0087770838290452957, 0.014910331927239895, 0.0097728902474045753, 0.0040508797392249107, 0.0060078729875385761, 0.0069166095927357674, 0.01468206848949194, 0.0093513168394565582, 0.0038935861084610224, 0.0033383949194103479, 0.01937374472618103, 0.010017728433012962, 0.020617648959159851, 0.007986338809132576, 0.034206278622150421, 0.012765540741384029, 0.011508937925100327, 0.01124659925699234, 0.0063997278921306133, 0.0096712792292237282, 0.008815971203148365, 0.023143010213971138, 0.030987327918410301, 0.017886964604258537, 0.0078266318887472153, 0.023438705131411552, 0.0077276988886296749, 0.0081928707659244537, 0.0030146527569741011, 0.021029643714427948, 0.03204895555973053, 0.0069883521646261215, 0.022690258920192719, 0.022985145449638367, 0.0077001196332275867, 0.010398313403129578, 0.005644035991281271, 0.0058887205086648464, 0.0079076560214161873, } };
const TfLiteAffineQuantization quant29 = { (TfLiteFloatArray*)&quant29_scale, (TfLiteIntArray*)&g0::quant6_zero, 3 };
const MODEL_SECTION(EI_MODEL_SECTION) ALIGN(16) int32_t tensor_data30[48] = { 3323, 1557, 116517, -1863, -818, 11565, -843, 1612, 2409, -134, 6908, 910, 3599, 5797, 2560, 1454, 2650, 4152, -468, 2791, 674, 137, 995, 25889, 67956, 3543, 5618, -1263, -279, 11451, 7288, 27751, 6493, 3109, 4385, -1370, 183, 1506, 4822, 3306, 1356, 4893, 8963, 2386, 7973, 2823, 5076, 274, };
const TfArray<48, float> quant30_scale = { 48, { 0.00021832247148267925, 0.00034305281587876379, 1.2007564691884909e-05, 0.00023623889137525111, 0.00040777985122986138, 0.00010533515160204843, 0.0002307772811036557, 0.00037450069794431329, 0.00024006776220630854, 0.0004489828716032207, 0.00012559618335217237, 0.00029741998878307641, 0.0001427981915185228, 0.00014660040324088186, 0.00018620867922436446, 0.00040919784805737436, 0.00016361167945433408, 0.00015438506670761853, 0.00037282920675352216, 0.00031265610596165061, 0.00038043130189180374, 0.00034787366166710854, 0.00024838323588483036, 4.2758187191793695e-05, 2.433934059808962e-05, 0.00021693581948056817, 0.00016394340491387993, 0.00027509965002536774, 0.00049486733041703701, 8.2948645285796374e-05, 0.00012568167585413903, 4.1769049857975915e-05, 0.00014072038175072521, 0.0002434692723909393, 0.00019364841864444315, 0.00021339007071219385, 0.00031832081731408834, 0.00024058065901044756, 0.00019188737496733665, 0.0002421073877485469, 0.00021838063548784703, 0.00018762628315016627, 0.00013508588017430156, 0.00033367116702720523, 0.00012043952301610261, 0.0002394235780229792, 0.00017614937678445131, 0.00040621700463816524, } };
const TfLiteAffineQuantization quant30 = { (TfLiteFloatArray*)&quant30_scale, (TfLiteIntArray*)&g0::quant6_zero, 0 };
const MODEL_SECTION(EI_MODEL_SECTION) ALIGN(16) int8_t tensor_data31[48*1*1*8] = { 
  /* [0][0][][] */ -16,26,23,-94,-59,24,37,127, 
  /* [1][0][][] */ 82,22,-15,-19,-75,31,127,13, 
  /* [2][0][][] */ 24,105,-36,-17,-2,120,-66,-127, 
  /* [3][0][][] */ 96,-114,-127,100,-105,-40,4,-52, 
  /* [4][0][][] */ 33,-64,54,-5,-127,-16,51,37, 
  /* [5][0][][] */ -23,59,-14,-97,-127,4,-16,14, 
  /* [6][0][][] */ 55,-6,33,35,127,-19,-8,-98, 
  /* [7][0][][] */ 15,32,34,127,24,-8,-6,37, 
  /* [8][0][][] */ 15,32,26,-36,32,127,41,-36, 
  /* [9][0][][] */ 127,51,22,63,-40,-39,111,112, 
  /* [10][0][][] */ 17,54,-52,-13,10,127,54,-51, 
  /* [11][0][][] */ -21,-28,-127,113,-71,17,-10,64, 
  /* [12][0][][] */ -104,-125,89,61,45,-127,-78,41, 
  /* [13][0][][] */ 36,25,36,53,-58,127,3,-37, 
  /* [14][0][][] */ 14,-85,9,5,-57,-69,-127,103, 
  /* [15][0][][] */ -71,38,0,-41,127,-9,-124,-33, 
  /* [16][0][][] */ 106,81,-88,-100,45,127,89,32, 
  /* [17][0][][] */ -84,127,-109,35,-12,5,0,-82, 
  /* [18][0][][] */ 55,-4,-88,127,8,-16,-61,-56, 
  /* [19][0][][] */ 95,28,11,41,-64,-1,127,42, 
  /* [20][0][][] */ 5,-44,-102,127,11,-7,1,-70, 
  /* [21][0][][] */ 18,47,127,-95,54,-46,47,-99, 
  /* [22][0][][] */ -125,-31,-118,68,-17,-12,2,127, 
  /* [23][0][][] */ 104,58,22,12,-122,127,111,-77, 
  /* [24][0][][] */ -33,26,-127,76,-70,23,50,89, 
  /* [25][0][][] */ 46,-32,-60,127,86,24,-55,25, 
  /* [26][0][][] */ -88,52,127,-84,-8,32,52,17, 
  /* [27][0][][] */ -85,91,127,-13,27,-12,89,23, 
  /* [28][0][][] */ -53,-72,38,-127,-24,-4,17,-37, 
  /* [29][0][][] */ -125,-97,13,92,12,-127,-3,92, 
  /* [30][0][][] */ -127,56,68,6,21,14,70,19, 
  /* [31][0][][] */ -66,56,102,-127,-48,13,40,76, 
  /* [32][0][][] */ -66,102,62,-127,22,11,44,74, 
  /* [33][0][][] */ 5,110,-51,42,19,28,-127,-33, 
  /* [34][0][][] */ 72,51,99,-100,-127,-68,76,-89, 
  /* [35][0][][] */ 91,-19,27,73,60,-67,7,-127, 
  /* [36][0][][] */ 26,60,110,-117,39,-14,44,-127, 
  /* [37][0][][] */ -59,-42,88,94,-28,-126,127,-51, 
  /* [38][0][][] */ 86,-10,104,44,-2,-45,127,55, 
  /* [39][0][][] */ 19,-46,-28,9,-127,10,66,57, 
  /* [40][0][][] */ -23,41,-127,84,-55,54,-89,75, 
  /* [41][0][][] */ -77,-29,-54,-20,127,18,-64,6, 
  /* [42][0][][] */ -43,40,-13,-42,127,33,-81,-18, 
  /* [43][0][][] */ 127,73,-28,110,1,-92,21,66, 
  /* [44][0][][] */ 17,21,62,-29,68,-127,57,-20, 
  /* [45][0][][] */ 11,-73,127,64,-21,0,-126,19, 
  /* [46][0][][] */ 28,-82,-127,85,-101,27,-10,-16, 
  /* [47][0][][] */ -127,6,33,-28,78,77,-105,-4, 
};
const TfArray<48, float> quant31_scale = { 48, { 0.0041124103590846062, 0.0064618815667927265, 0.00022617934155277908, 0.0044498913921415806, 0.0076811062172055244, 0.0019841354805976152, 0.0043470142409205437, 0.0070542469620704651, 0.0045220134779810905, 0.0084572229534387589, 0.0023657805286347866, 0.0056023234501481056, 0.0026898046489804983, 0.0027614245191216469, 0.0035075019113719463, 0.0077078160829842091, 0.0030818558298051357, 0.0029080596286803484, 0.0070227617397904396, 0.0058893170207738876, 0.0071659577079117298, 0.0065526892431080341, 0.0046786470338702202, 0.00080541049828752875, 0.00045846565626561642, 0.0040862909518182278, 0.0030881043057888746, 0.0051818881183862686, 0.0093215210363268852, 0.0015624542720615864, 0.0023673907853662968, 0.00078677874989807606, 0.0026506660506129265, 0.0045860856771469116, 0.0036476401146501303, 0.004019501619040966, 0.0059960195794701576, 0.0045316745527088642, 0.0036144682671874762, 0.0045604328624904156, 0.0041135060600936413, 0.0035342045594006777, 0.0025445322971791029, 0.0062851649709045887, 0.0022686475422233343, 0.0045098792761564255, 0.0033180210739374161, 0.0076516680419445038, } };
const TfLiteAffineQuantization quant31 = { (TfLiteFloatArray*)&quant31_scale, (TfLiteIntArray*)&g0::quant6_zero, 0 };
const MODEL_SECTION(EI_MODEL_SECTION) ALIGN(16) int32_t tensor_data32[8] = { -9297, 1330, -16896, -325, 2278, -2706, 13732, 224, };
const TfArray<8, float> quant32_scale = { 8, { 0.00013527450209949166, 9.604907245375216e-05, 7.1044334617909044e-05, 4.3111416744068265e-05, 0.00014426712004933506, 9.9826342193409801e-05, 0.00010343838221160695, 0.00015133367560338229, } };
const TfLiteAffineQuantization quant32 = { (TfLiteFloatArray*)&quant32_scale, (TfLiteIntArray*)&g0::quant8_zero, 0 };
const MODEL_SECTION(EI_MODEL_SECTION) ALIGN(16) int8_t tensor_data33[8*1*1*48] = { 
  /* [0][0][][] */ 46,108,-43,67,-4,-5,-21,7,53,-55,11,-22,6,9,-29,-41,11,-25,26,12,-52,-35,-39,2,13,20,21,-10,14,25,-24,28,-67,4,94,-127,-33,16,-20,112,-34,15,0,7,-5,38,26,-36, 
  /* [1][0][][] */ 7,-39,18,54,-21,-30,-30,-1,45,-28,94,34,17,0,-36,-72,127,36,11,26,-50,23,23,-21,-58,-98,-39,-53,1,-60,40,-37,-6,-25,-27,10,-6,-5,75,-52,-25,24,-57,37,75,74,35,47, 
  /* [2][0][][] */ 79,-41,-21,-21,107,101,80,60,-37,-5,3,-38,5,57,81,31,-26,-37,63,-40,-23,-42,-45,46,-104,-107,108,9,42,-50,-63,30,-127,88,116,12,-10,-6,-19,-7,7,75,16,-51,-8,7,70,-36, 
  /* [3][0][][] */ 57,-9,22,9,100,127,43,27,-43,-24,28,54,-101,54,65,38,28,8,70,-120,-91,-3,20,71,11,-13,36,13,43,-37,-5,-7,-123,40,-73,-102,-3,-54,70,-23,54,-75,-100,-27,-46,27,-33,45, 
  /* [4][0][][] */ 34,46,-31,-41,-7,-9,-29,-2,11,2,-20,-17,-29,-27,71,48,-46,-13,-25,36,42,-15,-12,0,-47,-40,0,53,-10,10,-26,31,-26,-20,40,-127,-10,29,20,52,9,-15,-7,-32,44,10,95,-27, 
  /* [5][0][][] */ 50,50,-88,62,3,19,-1,39,-75,-40,-49,-20,23,35,57,42,51,-70,32,127,-53,-53,-65,44,21,-36,-50,50,21,27,-60,16,-28,-1,-57,2,-20,23,-21,65,21,69,-14,-50,116,21,15,-64, 
  /* [6][0][][] */ -37,-82,20,-49,-51,-49,-85,-92,-50,-74,-113,50,-72,-55,100,105,-127,12,25,-3,9,70,70,26,-11,-4,-83,87,-91,-31,42,70,10,-58,79,31,23,46,-22,-91,-26,-65,-43,27,-37,-12,-6,80, 
  /* [7][0][][] */ 80,19,-11,30,14,17,8,4,83,-1,-5,-18,52,8,-11,-22,-46,-2,-45,-5,6,-15,-30,-23,62,-127,11,-7,5,95,-20,19,-67,28,-51,-39,-22,21,33,39,42,59,-32,-20,-29,30,41,-11, 
};
const TfArray<8, float> quant33_scale = { 8, { 0.0057491660118103027, 0.0040820855647325516, 0.0030193841084837914, 0.0018322351388633251, 0.0061313523910939693, 0.0042426194995641708, 0.0043961312621831894, 0.0064316811040043831, } };
const TfLiteAffineQuantization quant33 = { (TfLiteFloatArray*)&quant33_scale, (TfLiteIntArray*)&g0::quant8_zero, 0 };
const MODEL_SECTION(EI_MODEL_SECTION) ALIGN(16) int32_t tensor_data34[48] = { 1325, 9550, 5498, 4360, 6591, 4980, 10966, 6889, -882, -7920, 989, 974, 6729, 8489, 29324, 19464, 6609, 5076, 747, 7100, 16840, -3344, 1713, 2138, 5827, 2414, 8264, 13733, 5835, 9422, 1478, 2848, 719, 4235, 3659, 2953, 663, 812, 351, 2747, 1524, 3015, -3151, 1700, -1831, -711, 13868, 1940, };
const TfArray<48, float> quant34_scale = { 48, { 8.8171807874459773e-05, 0.00013435333676170558, 0.0006511133979074657, 5.2217295888112858e-05, 0.00067521934397518635, 0.00098755455110222101, 0.00012049929500790313, 0.00014514202484861016, 7.956266199471429e-05, 0.00017315892910119146, 0.00056358281290158629, 0.00034767010947689414, 0.0001398250024067238, 0.00011042364349123091, 4.6028388169361278e-05, 4.9748348828870803e-05, 6.6832413722295314e-05, 0.00048754501040093601, 6.4664789533708245e-05, 6.8766770709771663e-05, 5.2421946747926995e-05, 0.00056036526802927256, 0.0014297447632998228, 0.00022007772349752486, 5.6235916417790577e-05, 0.00011378233466530219, 7.3301656811963767e-05, 8.5234525613486767e-05, 0.00016213051276281476, 9.2050831881351769e-05, 0.000497331318911165, 0.00014779619232285768, 6.9686539063695818e-05, 0.0002674649003893137, 6.463399768108502e-05, 9.0962756075896323e-05, 0.00035514755290932953, 0.00019222169066779315, 0.00013970737927593291, 0.0002404567931080237, 0.00011392065061954781, 0.00018049587379209697, 7.5784897489938885e-05, 0.00034843402681872249, 0.00010083030792884529, 0.00017567579925525934, 0.00010151729657081887, 0.00069141562562435865, } };
const TfLiteAffineQuantization quant34 = { (TfLiteFloatArray*)&quant34_scale, (TfLiteIntArray*)&g0::quant6_zero, 0 };
const MODEL_SECTION(EI_MODEL_SECTION) ALIGN(16) int8_t tensor_data35[1*3*3*48] = { 
  /* [0][0][][] */ -36,-68,-112,38,-90,-14,-105,-64,63,40,127,-41,-9,-17,-41,-16,82,-104,60,-47,-9,-68,-44,-86,57,91,3,-127,-10,1,76,53,55,68,36,19,84,87,20,16,-87,-12,5,54,31,51,-21,-88, 90,-22,24,72,-127,25,-115,-2,125,88,63,78,-8,-103,-99,-86,127,-69,97,-95,-84,127,127,-4,107,97,44,-101,-58,-14,-115,91,93,127,78,91,-30,83,61,-47,-55,-49,-26,-59,14,60,-84,83, 125,0,44,46,-78,1,-19,-24,58,54,4,-48,-86,-9,-83,-78,44,68,56,-23,-41,-9,-67,26,2,24,19,-26,-5,12,27,50,17,77,13,58,-3,-95,35,-9,-39,-16,-2,6,59,25,-65,-2, 
  /* [0][1][][] */ 29,-127,88,101,57,-77,-127,-127,78,109,62,-49,6,-32,-127,-34,87,106,68,-105,-40,106,35,-127,127,127,124,-79,-15,-80,-81,76,121,-25,90,48,15,96,14,8,20,-5,127,96,-118,49,-127,85, 122,-22,-18,127,82,-127,-120,-3,127,127,72,78,-20,-127,-115,-127,99,32,127,-103,-127,-95,-94,-3,109,112,127,-91,-127,-127,127,127,127,-28,127,127,3,127,127,-127,30,-127,112,-96,-127,127,-66,-127, 127,-17,-127,35,58,-64,-46,-17,32,104,-57,-24,-127,-7,-67,-63,55,-127,51,6,-78,19,48,39,61,55,30,-52,-9,-36,-49,35,19,-40,43,54,11,-66,64,-5,5,-10,69,-7,-75,1,-7,9, 
  /* [0][2][][] */ 42,-82,10,48,-15,40,-108,-64,17,11,-57,69,28,-23,-92,-40,25,-55,3,-127,-22,13,-6,-90,-3,34,48,14,4,-119,3,13,85,-98,68,6,-127,62,53,13,41,-7,63,-127,-33,86,-24,-14, 26,-6,3,71,-6,70,-66,-7,1,63,-1,-127,-9,-115,-102,-37,49,-35,46,-118,-107,5,-34,-6,5,46,45,-44,-85,-122,-42,4,91,-88,50,27,30,103,68,-33,127,-78,75,86,-65,87,-93,15, -2,2,-2,40,-28,26,-2,-11,0,30,-81,30,-97,-42,-26,-39,12,20,-2,-26,-86,15,-1,-7,54,21,7,-4,10,-47,13,-21,8,-67,14,13,19,-115,53,11,67,-23,8,-5,-13,103,-58,-6, 
};
const TfArray<48, float> quant35_scale = { 48, { 0.0037473018746823072, 0.0057100164704024792, 0.027672318741679192, 0.0022192350588738918, 0.028696822002530098, 0.041971068829298019, 0.0051212199032306671, 0.0061685359105467796, 0.0033814131747931242, 0.007359254639595747, 0.023952268064022064, 0.014775979332625866, 0.0059425625950098038, 0.0046930047683417797, 0.001956206513568759, 0.0021143048070371151, 0.0028403773903846741, 0.020720662549138069, 0.0027482535224407911, 0.0029225877951830626, 0.0022279326803982258, 0.023815523833036423, 0.060764152556657791, 0.009353303350508213, 0.0023900263477116823, 0.0048357490450143814, 0.0031153203453868628, 0.0036224671639502048, 0.0068905465304851532, 0.0039121601730585098, 0.021136580035090446, 0.0062813381664454937, 0.0029616779647767544, 0.011367258615791798, 0.0027469447813928127, 0.0038659169804304838, 0.015093770809471607, 0.0081694219261407852, 0.0059375637210905552, 0.010219413787126541, 0.0048416275531053543, 0.0076710744760930538, 0.0032208580523729324, 0.014808446168899536, 0.004285288043320179, 0.0074662212282419205, 0.0043144850060343742, 0.029385162517428398, } };
const TfLiteAffineQuantization quant35 = { (TfLiteFloatArray*)&quant35_scale, (TfLiteIntArray*)&g0::quant6_zero, 3 };
const MODEL_SECTION(EI_MODEL_SECTION) ALIGN(16) int32_t tensor_data36[48] = { 11070, 5661, 12017, 1535, 5272, 5022, -4634, 5003, 3186, -2420, -3710, 6545, -3846, -4854, 7046, 2720, -1872, 5442, -2097, 2752, -1244, 4503, 5585, -1422, -1055, -5217, 2581, -5480, 4732, 8547, 521, 315, 7587, 15490, 11629, 5646, 3751, -4698, -579, 4669, 680, -4329, 5247, 1629, 741, -6998, -13003, 3786, };
const TfArray<48, float> quant36_scale = { 48, { 0.00031927292002364993, 0.00059038650942966342, 9.5383140433114022e-05, 0.00078815448796376586, 0.00029902192181907594, 0.00032382321660406888, 0.0016331030055880547, 0.00082627643132582307, 0.00085020391270518303, 0.00052748364396393299, 0.00010853858111659065, 0.0004519910435192287, 0.00041364930802956223, 0.0011408863356336951, 0.00047807692317292094, 0.0018051998922601342, 0.00096374307759106159, 0.00023177843831945211, 0.001324264332652092, 0.0014260966563597322, 0.00066564348526299, 0.00043167269905097783, 8.3142462244722992e-05, 0.00044790477841161191, 0.00096817681333050132, 0.00080802047159522772, 0.00083436211571097374, 0.00038098779623396695, 0.00089404953178018332, 0.00049976032460108399, 0.00034773172228597105, 0.00046229612780734897, 0.00048945413436740637, 0.00012734203482978046, 0.0002138391719199717, 0.00037570891436189413, 0.00060269981622695923, 0.0012245435500517488, 0.00035857452894560993, 0.00061437516706064343, 0.0010544105898588896, 0.00052427995251491666, 0.0005344193778000772, 0.0002963536826428026, 0.0016891760751605034, 0.0006662295782007277, 0.00037041257019154727, 0.00039956707041710615, } };
const TfLiteAffineQuantization quant36 = { (TfLiteFloatArray*)&quant36_scale, (TfLiteIntArray*)&g0::quant6_zero, 0 };
const MODEL_SECTION(EI_MODEL_SECTION) ALIGN(16) int8_t tensor_data37[48*1*1*8] = { 
  /* [0][0][][] */ -83,-110,30,-127,-51,-15,0,9, 
  /* [1][0][][] */ -127,-21,99,-10,-36,11,14,-2, 
  /* [2][0][][] */ 9,-16,14,127,5,-17,-5,-8, 
  /* [3][0][][] */ -90,-78,-28,6,28,127,-47,-21, 
  /* [4][0][][] */ -7,-41,0,8,-9,17,-127,-92, 
  /* [5][0][][] */ -7,-46,-3,1,-10,15,-127,-89, 
  /* [6][0][][] */ 127,4,13,-2,-75,25,-5,3, 
  /* [7][0][][] */ -127,-39,-13,6,83,12,-1,-6, 
  /* [8][0][][] */ 19,37,-11,-16,-36,-127,27,31, 
  /* [9][0][][] */ 72,13,-7,-7,-18,-2,-6,127, 
  /* [10][0][][] */ 127,-7,-123,0,-91,-18,23,119, 
  /* [11][0][][] */ -127,54,9,-33,47,-58,-6,32, 
  /* [12][0][][] */ 127,-37,-104,18,65,5,-3,-28, 
  /* [13][0][][] */ 127,0,27,1,-43,28,4,-18, 
  /* [14][0][][] */ -109,-43,84,-32,69,-21,-39,-127, 
  /* [15][0][][] */ 25,55,10,-13,-7,-127,-21,3, 
  /* [16][0][][] */ -18,-71,10,13,6,127,7,9, 
  /* [17][0][][] */ 57,-127,-104,-28,-45,99,-83,-6, 
  /* [18][0][][] */ 39,-29,-29,-13,-29,43,127,-6, 
  /* [19][0][][] */ -10,34,-2,-127,0,42,6,-18, 
  /* [20][0][][] */ -68,-14,42,15,65,111,10,-127, 
  /* [21][0][][] */ -32,-7,43,-17,-20,17,-127,-99, 
  /* [22][0][][] */ 73,2,23,127,-24,-45,79,21, 
  /* [23][0][][] */ 114,-36,-127,-12,17,-29,10,11, 
  /* [24][0][][] */ -39,27,21,51,1,11,-127,-67, 
  /* [25][0][][] */ 127,15,-79,10,16,-3,5,19, 
  /* [26][0][][] */ 2,58,-35,-127,-24,19,7,10, 
  /* [27][0][][] */ 106,43,-127,16,-115,68,46,68, 
  /* [28][0][][] */ -127,-26,-14,9,50,4,-11,31, 
  /* [29][0][][] */ -22,-127,-15,-116,-26,28,-27,-10, 
  /* [30][0][][] */ 19,56,127,15,38,-86,85,43, 
  /* [31][0][][] */ -64,-10,-127,40,8,-21,93,108, 
  /* [32][0][][] */ -2,-115,0,-127,-5,8,-4,-31, 
  /* [33][0][][] */ 17,-127,6,-83,7,3,-4,-14, 
  /* [34][0][][] */ -24,-62,23,-110,33,-56,127,84, 
  /* [35][0][][] */ -127,-6,50,-6,-101,-32,32,61, 
  /* [36][0][][] */ -127,20,115,13,-31,31,3,-1, 
  /* [37][0][][] */ 127,8,3,2,-84,16,-1,26, 
  /* [38][0][][] */ -64,-7,98,44,50,-35,52,127, 
  /* [39][0][][] */ -127,-7,86,3,-56,8,-2,3, 
  /* [40][0][][] */ -20,11,85,-22,14,-31,127,53, 
  /* [41][0][][] */ 127,-16,-67,-2,55,8,8,-18, 
  /* [42][0][][] */ -11,-127,40,-27,25,-10,-4,-33, 
  /* [43][0][][] */ -26,118,127,-11,59,-74,48,46, 
  /* [44][0][][] */ -7,-2,9,101,5,-127,4,5, 
  /* [45][0][][] */ 127,-34,42,-7,-57,111,15,-4, 
  /* [46][0][][] */ 7,127,-4,123,5,126,12,40, 
  /* [47][0][][] */ -31,28,24,-36,11,-40,127,78, 
};
const TfArray<48, float> quant37_scale = { 48, { 0.0043711578473448753, 0.0080829672515392303, 0.0013058882905170321, 0.010790604166686535, 0.0040939017198979855, 0.0044334558770060539, 0.022358773276209831, 0.011312530376017094, 0.011640121228992939, 0.0072217658162117004, 0.0014859990915283561, 0.0061881984584033489, 0.0056632626801729202, 0.015619846992194653, 0.0065453397110104561, 0.024714948609471321, 0.013194583356380463, 0.0031732730567455292, 0.01813047006726265, 0.019524654373526573, 0.0091133089736104012, 0.0059100203216075897, 0.0011383014498278499, 0.0061322534456849098, 0.01325528509914875, 0.011062588542699814, 0.011423231102526188, 0.0052160946652293205, 0.012240410782396793, 0.0068422066979110241, 0.0047607864253222942, 0.0063292849808931351, 0.0067011043429374695, 0.0017434366745874286, 0.0029276669956743717, 0.0051438217051327229, 0.008251548744738102, 0.01676519587635994, 0.0049092350527644157, 0.008411395363509655, 0.014435909688472748, 0.0071779042482376099, 0.0073167230002582073, 0.0040573710575699806, 0.023126468062400818, 0.0091213332489132881, 0.005071309395134449, 0.0054704630747437477, } };
const TfLiteAffineQuantization quant37 = { (TfLiteFloatArray*)&quant37_scale, (TfLiteIntArray*)&g0::quant6_zero, 0 };
const MODEL_SECTION(EI_MODEL_SECTION) ALIGN(16) int32_t tensor_data38[8] = { 5002, -4045, -936, 3483, 2861, 2117, -2687, 3146, };
const TfArray<8, float> quant38_scale = { 8, { 6.0749782278435305e-05, 0.00012190124107291922, 7.85345837357454e-05, 7.5383541116025299e-05, 0.00015033590898383409, 0.00020432609017007053, 7.8255790867842734e-05, 0.0001993588957702741, } };
const TfLiteAffineQuantization quant38 = { (TfLiteFloatArray*)&quant38_scale, (TfLiteIntArray*)&g0::quant8_zero, 0 };
const MODEL_SECTION(EI_MODEL_SECTION) ALIGN(16) int8_t tensor_data39[8*1*1*8] = { 
  /* [0][0][][] */ -25,-17,-44,-33,-20,37,-127,-19, 
  /* [1][0][][] */ 9,81,-19,127,-4,-17,-6,-23, 
  /* [2][0][][] */ 115,5,-36,-68,-70,34,127,-46, 
  /* [3][0][][] */ 8,-127,30,-71,15,-69,21,76, 
  /* [4][0][][] */ 127,3,-66,-2,23,-1,-113,-51, 
  /* [5][0][][] */ 4,-39,10,32,2,-127,3,7, 
  /* [6][0][][] */ 127,-5,85,-14,127,-29,-2,-5, 
  /* [7][0][][] */ -127,3,-116,-14,-85,14,37,12, 
};
const TfArray<4, int> tensor_dimension39 = { 4, { 8,1,1,8 } };
const TfArray<8, float> quant39_scale = { 8, { 0.0025818657595664263, 0.0051808026619255543, 0.0033377197105437517, 0.0032038004137575626, 0.0063892761245369911, 0.0086838584393262863, 0.0033258711919188499, 0.008472752757370472, } };
const TfLiteAffineQuantization quant39 = { (TfLiteFloatArray*)&quant39_scale, (TfLiteIntArray*)&g0::quant8_zero, 0 };
const MODEL_SECTION(EI_MODEL_SECTION) ALIGN(16) int32_t tensor_data40[8] = { -8824, 16147, 2658, -14508, 228, -14789, 256, 146, };
const TfArray<8, float> quant40_scale = { 8, { 0.00027109280927106738, 0.00034696707734838128, 0.00019503933435771614, 0.00031282295822165906, 0.00023705707280896604, 0.00031592324376106262, 0.0014201068552210927, 0.0030836323276162148, } };
const TfLiteAffineQuantization quant40 = { (TfLiteFloatArray*)&quant40_scale, (TfLiteIntArray*)&g0::quant8_zero, 0 };
const MODEL_SECTION(EI_MODEL_SECTION) ALIGN(16) int8_t tensor_data41[1*3*3*8] = { 
  /* [0][0][][] */ -5,-1,-4,14,6,8,10,17, 13,-1,-59,127,-33,-2,-2,16, -2,-7,-17,10,-4,2,-4,9, 
  /* [0][1][][] */ -11,-6,101,-16,127,7,-109,37, 127,-127,-127,17,-105,127,-13,-127, -28,-8,6,-18,5,1,127,30, 
  /* [0][2][][] */ -8,-9,-14,5,10,5,13,26, 5,-8,-67,4,-17,5,-13,-106, -2,-13,-11,1,6,-4,-8,33, 
};
const TfArray<4, int> tensor_dimension41 = { 4, { 1,3,3,8 } };
const TfArray<8, float> quant41_scale = { 8, { 0.011521443724632263, 0.014746100641787052, 0.0082891713827848434, 0.013294975273311138, 0.010074925608932972, 0.013426737859845161, 0.060354538261890411, 0.13105437159538269, } };
const TfLiteAffineQuantization quant41 = { (TfLiteFloatArray*)&quant41_scale, (TfLiteIntArray*)&g0::quant8_zero, 3 };
const MODEL_SECTION(EI_MODEL_SECTION) ALIGN(16) int32_t tensor_data42[8] = { 8083, 8104, 318, 17076, 1071, 7012, 70189, -3807, };
const TfArray<8, float> quant42_scale = { 8, { 0.00026085734134539962, 0.00029399825143627822, 0.00030225299997255206, 0.00017918134108185768, 0.00039623933844268322, 0.00027479487471282482, 1.26294580695685e-05, 1.3063008736935444e-05, } };
const TfLiteAffineQuantization quant42 = { (TfLiteFloatArray*)&quant42_scale, (TfLiteIntArray*)&g0::quant8_zero, 0 };
const MODEL_SECTION(EI_MODEL_SECTION) ALIGN(16) int8_t tensor_data43[8*3*3*1] = { 
  /* [0][0][][] */ -55, 52, 11, 
  /* [0][1][][] */ -127, 124, 1, 
  /* [0][2][][] */ -42, 47, 1, 
  /* [1][0][][] */ 57, 127, 35, 
  /* [1][1][][] */ -69, -80, -44, 
  /* [1][2][][] */ 7, -42, 5, 
  /* [2][0][][] */ 30, 26, -47, 
  /* [2][1][][] */ 51, 68, -127, 
  /* [2][2][][] */ 20, 31, -59, 
  /* [3][0][][] */ 39, 49, 16, 
  /* [3][1][][] */ 49, 69, 22, 
  /* [3][2][][] */ -81, -127, -59, 
  /* [4][0][][] */ 5, -53, 49, 
  /* [4][1][][] */ 17, -127, 114, 
  /* [4][2][][] */ 5, -36, 33, 
  /* [5][0][][] */ 4, -53, 3, 
  /* [5][1][][] */ 2, 127, 5, 
  /* [5][2][][] */ 3, -72, 3, 
  /* [6][0][][] */ -27, -98, 7, 
  /* [6][1][][] */ -20, -127, -1, 
  /* [6][2][][] */ 19, -25, 13, 
  /* [7][0][][] */ 29, -127, 20, 
  /* [7][1][][] */ -18, -3, -12, 
  /* [7][2][][] */ -29, 63, -14, 
};
const TfArray<4, int> tensor_dimension43 = { 4, { 8,3,3,1 } };
const TfArray<8, float> quant43_scale = { 8, { 0.066518619656562805, 0.074969552457332611, 0.077074512839317322, 0.045691240578889847, 0.1010410264134407, 0.070072688162326813, 0.0032205116003751755, 0.0033310670405626297, } };
const TfLiteAffineQuantization quant43 = { (TfLiteFloatArray*)&quant43_scale, (TfLiteIntArray*)&g0::quant8_zero, 0 };
const TfArray<4, int> tensor_dimension44 = { 4, { 1,48,48,8 } };
const TfArray<1, float> quant44_scale = { 1, { 0.023529412224888802, } };
const TfLiteAffineQuantization quant44 = { (TfLiteFloatArray*)&quant44_scale, (TfLiteIntArray*)&g0::quant0_zero, 0 };
const TfArray<1, float> quant46_scale = { 1, { 0.059441227465867996, } };
const TfArray<1, int> quant46_zero = { 1, { 32 } };
const TfLiteAffineQuantization quant46 = { (TfLiteFloatArray*)&quant46_scale, (TfLiteIntArray*)&quant46_zero, 0 };
const TfArray<1, float> quant47_scale = { 1, { 0.073040813207626343, } };
const TfArray<1, int> quant47_zero = { 1, { 3 } };
const TfLiteAffineQuantization quant47 = { (TfLiteFloatArray*)&quant47_scale, (TfLiteIntArray*)&quant47_zero, 0 };
const TfArray<4, int> tensor_dimension48 = { 4, { 1,48,48,48 } };
const TfArray<4, int> tensor_dimension49 = { 4, { 1,49,49,48 } };
const TfArray<4, int> tensor_dimension50 = { 4, { 1,24,24,48 } };
const TfArray<4, int> tensor_dimension51 = { 4, { 1,24,24,8 } };
const TfArray<1, float> quant51_scale = { 1, { 0.053088687360286713, } };
const TfArray<1, int> quant51_zero = { 1, { 16 } };
const TfLiteAffineQuantization quant51 = { (TfLiteFloatArray*)&quant51_scale, (TfLiteIntArray*)&quant51_zero, 0 };
const TfArray<1, float> quant54_scale = { 1, { 0.091753184795379639, } };
const TfArray<1, int> quant54_zero = { 1, { -23 } };
const TfLiteAffineQuantization quant54 = { (TfLiteFloatArray*)&quant54_scale, (TfLiteIntArray*)&quant54_zero, 0 };
const TfArray<1, float> quant55_scale = { 1, { 0.10773171484470367, } };
const TfArray<1, int> quant55_zero = { 1, { 7 } };
const TfLiteAffineQuantization quant55 = { (TfLiteFloatArray*)&quant55_scale, (TfLiteIntArray*)&quant55_zero, 0 };
const TfArray<4, int> tensor_dimension57 = { 4, { 1,25,25,48 } };
const TfArray<4, int> tensor_dimension58 = { 4, { 1,12,12,48 } };
const TfArray<4, int> tensor_dimension59 = { 4, { 1,12,12,8 } };
const TfArray<1, float> quant59_scale = { 1, { 0.090535193681716919, } };
const TfArray<1, int> quant59_zero = { 1, { -11 } };
const TfLiteAffineQuantization quant59 = { (TfLiteFloatArray*)&quant59_scale, (TfLiteIntArray*)&quant59_zero, 0 };
const TfArray<1, float> quant62_scale = { 1, { 0.064726315438747406, } };
const TfArray<1, int> quant62_zero = { 1, { -8 } };
const TfLiteAffineQuantization quant62 = { (TfLiteFloatArray*)&quant62_scale, (TfLiteIntArray*)&quant62_zero, 0 };
const TfArray<1, float> quant63_scale = { 1, { 0.13332772254943848, } };
const TfArray<1, int> quant63_zero = { 1, { -28 } };
const TfLiteAffineQuantization quant63 = { (TfLiteFloatArray*)&quant63_scale, (TfLiteIntArray*)&quant63_zero, 0 };
const TfArray<1, float> quant66_scale = { 1, { 0.064416870474815369, } };
const TfArray<1, int> quant66_zero = { 1, { 30 } };
const TfLiteAffineQuantization quant66 = { (TfLiteFloatArray*)&quant66_scale, (TfLiteIntArray*)&quant66_zero, 0 };
const TfArray<1, float> quant67_scale = { 1, { 0.16408595442771912, } };
const TfArray<1, int> quant67_zero = { 1, { -16 } };
const TfLiteAffineQuantization quant67 = { (TfLiteFloatArray*)&quant67_scale, (TfLiteIntArray*)&quant67_zero, 0 };
const TfArray<4, int> tensor_dimension69 = { 4, { 1,12,12,32 } };
const TfArray<1, float> quant69_scale = { 1, { 0.06267315149307251, } };
const TfLiteAffineQuantization quant69 = { (TfLiteFloatArray*)&quant69_scale, (TfLiteIntArray*)&g0::quant0_zero, 0 };
const TfArray<4, int> tensor_dimension70 = { 4, { 1,12,12,5 } };
const TfArray<1, float> quant70_scale = { 1, { 0.099291712045669556, } };
const TfArray<1, int> quant70_zero = { 1, { 9 } };
const TfLiteAffineQuantization quant70 = { (TfLiteFloatArray*)&quant70_scale, (TfLiteIntArray*)&quant70_zero, 0 };
const TfArray<1, float> quant71_scale = { 1, { 0.00390625, } };
const TfLiteAffineQuantization quant71 = { (TfLiteFloatArray*)&quant71_scale, (TfLiteIntArray*)&g0::quant0_zero, 0 };
const TfLiteConvParams opdata0 = { kTfLitePaddingSame, 2,2, kTfLiteActRelu6, 1,1 };
const TfArray<3, int> inputs0 = { 3, { 0,43,42 } };
const TfArray<1, int> outputs0 = { 1, { 44 } };
const TfLiteDepthwiseConvParams opdata1 = { kTfLitePaddingSame, 1,1, 1, kTfLiteActRelu6, 1,1 };
const TfArray<3, int> inputs1 = { 3, { 44,41,40 } };
const TfArray<1, int> outputs1 = { 1, { 45 } };
const TfLiteConvParams opdata2 = { kTfLitePaddingSame, 1,1, kTfLiteActNone, 1,1 };
const TfArray<3, int> inputs2 = { 3, { 45,39,38 } };
const TfArray<1, int> outputs2 = { 1, { 46 } };
const TfLiteAddParams opdata3 = { kTfLiteActNone };
const TfArray<2, int> inputs3 = { 2, { 44,46 } };
const TfArray<1, int> outputs3 = { 1, { 47 } };
const TfLiteConvParams opdata4 = { kTfLitePaddingSame, 1,1, kTfLiteActRelu6, 1,1 };
const TfArray<3, int> inputs4 = { 3, { 47,37,36 } };
const TfArray<1, int> outputs4 = { 1, { 48 } };
const TfArray<2, int> inputs5 = { 2, { 48,1 } };
const TfArray<1, int> outputs5 = { 1, { 49 } };
const TfLiteDepthwiseConvParams opdata6 = { kTfLitePaddingValid, 2,2, 1, kTfLiteActRelu6, 1,1 };
const TfArray<3, int> inputs6 = { 3, { 49,35,34 } };
const TfArray<1, int> outputs6 = { 1, { 50 } };
const TfLiteConvParams opdata7 = { kTfLitePaddingSame, 1,1, kTfLiteActNone, 1,1 };
const TfArray<3, int> inputs7 = { 3, { 50,33,32 } };
const TfArray<1, int> outputs7 = { 1, { 51 } };
const TfLiteConvParams opdata8 = { kTfLitePaddingSame, 1,1, kTfLiteActRelu6, 1,1 };
const TfArray<3, int> inputs8 = { 3, { 51,31,30 } };
const TfArray<1, int> outputs8 = { 1, { 52 } };
const TfLiteDepthwiseConvParams opdata9 = { kTfLitePaddingSame, 1,1, 1, kTfLiteActRelu6, 1,1 };
const TfArray<3, int> inputs9 = { 3, { 52,29,28 } };
const TfArray<1, int> outputs9 = { 1, { 53 } };
const TfLiteConvParams opdata10 = { kTfLitePaddingSame, 1,1, kTfLiteActNone, 1,1 };
const TfArray<3, int> inputs10 = { 3, { 53,27,26 } };
const TfArray<1, int> outputs10 = { 1, { 54 } };
const TfLiteAddParams opdata11 = { kTfLiteActNone };
const TfArray<2, int> inputs11 = { 2, { 51,54 } };
const TfArray<1, int> outputs11 = { 1, { 55 } };
const TfLiteConvParams opdata12 = { kTfLitePaddingSame, 1,1, kTfLiteActRelu6, 1,1 };
const TfArray<3, int> inputs12 = { 3, { 55,25,24 } };
const TfArray<1, int> outputs12 = { 1, { 56 } };
const TfArray<2, int> inputs13 = { 2, { 56,1 } };
const TfArray<1, int> outputs13 = { 1, { 57 } };
const TfLiteDepthwiseConvParams opdata14 = { kTfLitePaddingValid, 2,2, 1, kTfLiteActRelu6, 1,1 };
const TfArray<3, int> inputs14 = { 3, { 57,23,22 } };
const TfArray<1, int> outputs14 = { 1, { 58 } };
const TfLiteConvParams opdata15 = { kTfLitePaddingSame, 1,1, kTfLiteActNone, 1,1 };
const TfArray<3, int> inputs15 = { 3, { 58,21,20 } };
const TfArray<1, int> outputs15 = { 1, { 59 } };
const TfLiteConvParams opdata16 = { kTfLitePaddingSame, 1,1, kTfLiteActRelu6, 1,1 };
const TfArray<3, int> inputs16 = { 3, { 59,19,18 } };
const TfArray<1, int> outputs16 = { 1, { 60 } };
const TfLiteDepthwiseConvParams opdata17 = { kTfLitePaddingSame, 1,1, 1, kTfLiteActRelu6, 1,1 };
const TfArray<3, int> inputs17 = { 3, { 60,17,16 } };
const TfArray<1, int> outputs17 = { 1, { 61 } };
const TfLiteConvParams opdata18 = { kTfLitePaddingSame, 1,1, kTfLiteActNone, 1,1 };
const TfArray<3, int> inputs18 = { 3, { 61,15,14 } };
const TfArray<1, int> outputs18 = { 1, { 62 } };
const TfLiteAddParams opdata19 = { kTfLiteActNone };
const TfArray<2, int> inputs19 = { 2, { 59,62 } };
const TfArray<1, int> outputs19 = { 1, { 63 } };
const TfLiteConvParams opdata20 = { kTfLitePaddingSame, 1,1, kTfLiteActRelu6, 1,1 };
const TfArray<3, int> inputs20 = { 3, { 63,13,12 } };
const TfArray<1, int> outputs20 = { 1, { 64 } };
const TfLiteDepthwiseConvParams opdata21 = { kTfLitePaddingSame, 1,1, 1, kTfLiteActRelu6, 1,1 };
const TfArray<3, int> inputs21 = { 3, { 64,11,10 } };
const TfArray<1, int> outputs21 = { 1, { 65 } };
const TfLiteConvParams opdata22 = { kTfLitePaddingSame, 1,1, kTfLiteActNone, 1,1 };
const TfArray<3, int> inputs22 = { 3, { 65,9,8 } };
const TfArray<1, int> outputs22 = { 1, { 66 } };
const TfLiteAddParams opdata23 = { kTfLiteActNone };
const TfArray<2, int> inputs23 = { 2, { 63,66 } };
const TfArray<1, int> outputs23 = { 1, { 67 } };
const TfLiteConvParams opdata24 = { kTfLitePaddingSame, 1,1, kTfLiteActRelu6, 1,1 };
const TfArray<3, int> inputs24 = { 3, { 67,7,6 } };
const TfArray<1, int> outputs24 = { 1, { 68 } };
const TfLiteConvParams opdata25 = { kTfLitePaddingValid, 1,1, kTfLiteActRelu, 1,1 };
const TfArray<3, int> inputs25 = { 3, { 68,5,4 } };
const TfArray<1, int> outputs25 = { 1, { 69 } };
const TfLiteConvParams opdata26 = { kTfLitePaddingValid, 1,1, kTfLiteActNone, 1,1 };
const TfArray<3, int> inputs26 = { 3, { 69,3,2 } };
const TfArray<1, int> outputs26 = { 1, { 70 } };
const TfLiteSoftmaxParams opdata27 = { 1 };
const TfArray<1, int> inputs27 = { 1, { 70 } };
const TfArray<1, int> outputs27 = { 1, { 71 } };
};

TensorInfo_t tensorData[] = {
{ kTfLiteArenaRw, kTfLiteInt8, (int32_t*)(tensor_arena + 0), (TfLiteIntArray*)&g0::tensor_dimension0, 9216, {kTfLiteAffineQuantization, const_cast<void*>(static_cast<const void*>(&g0::quant0))}, },
{ kTfLiteMmapRo, kTfLiteInt32, (int32_t*)g0::tensor_data1, (TfLiteIntArray*)&g0::tensor_dimension1, 32, {kTfLiteNoQuantization, nullptr}, },
{ kTfLiteMmapRo, kTfLiteInt32, (int32_t*)g0::tensor_data2, (TfLiteIntArray*)&g0::tensor_dimension2, 20, {kTfLiteAffineQuantization, const_cast<void*>(static_cast<const void*>(&g0::quant2))}, },
{ kTfLiteMmapRo, kTfLiteInt8, (int32_t*)g0::tensor_data3, (TfLiteIntArray*)&g0::tensor_dimension3, 160, {kTfLiteAffineQuantization, const_cast<void*>(static_cast<const void*>(&g0::quant3))}, },
{ kTfLiteMmapRo, kTfLiteInt32, (int32_t*)g0::tensor_data4, (TfLiteIntArray*)&g0::tensor_dimension4, 128, {kTfLiteAffineQuantization, const_cast<void*>(static_cast<const void*>(&g0::quant4))}, },
{ kTfLiteMmapRo, kTfLiteInt8, (int32_t*)g0::tensor_data5, (TfLiteIntArray*)&g0::tensor_dimension5, 1536, {kTfLiteAffineQuantization, const_cast<void*>(static_cast<const void*>(&g0::quant5))}, },
{ kTfLiteMmapRo, kTfLiteInt32, (int32_t*)g0::tensor_data6, (TfLiteIntArray*)&g0::tensor_dimension6, 192, {kTfLiteAffineQuantization, const_cast<void*>(static_cast<const void*>(&g0::quant6))}, },
{ kTfLiteMmapRo, kTfLiteInt8, (int32_t*)g0::tensor_data7, (TfLiteIntArray*)&g0::tensor_dimension7, 384, {kTfLiteAffineQuantization, const_cast<void*>(static_cast<const void*>(&g0::quant7))}, },
{ kTfLiteMmapRo, kTfLiteInt32, (int32_t*)g0::tensor_data8, (TfLiteIntArray*)&g0::tensor_dimension8, 32, {kTfLiteAffineQuantization, const_cast<void*>(static_cast<const void*>(&g0::quant8))}, },
{ kTfLiteMmapRo, kTfLiteInt8, (int32_t*)g0::tensor_data9, (TfLiteIntArray*)&g0::tensor_dimension9, 384, {kTfLiteAffineQuantization, const_cast<void*>(static_cast<const void*>(&g0::quant9))}, },
{ kTfLiteMmapRo, kTfLiteInt32, (int32_t*)g0::tensor_data10, (TfLiteIntArray*)&g0::tensor_dimension6, 192, {kTfLiteAffineQuantization, const_cast<void*>(static_cast<const void*>(&g0::quant10))}, },
